svm_type epsilon_svr
kernel_type rbf
gamma 0.05
nr_class 2
total_sv 155
rho -10.1296
probA 0.560224
SV
858.7805935271267 1:-0.975123 2:-0.987661 3:-0.990833 4:-0.919079 5:-0.958105 6:-0.987438 7:-0.880393 8:-0.924704 9:-0.965844 10:-0.828583 11:-0.886324 12:-0.94529 13:-0.744389 14:-0.857136 15:-0.935662 16:-0.919638 17:-0.92203 18:-0.927117 19:-0.917944 20:-0.921598 21:-0.916602 22:-0.910164 23:-0.917967 24:-0.921818 25:-0.916759 26:-0.919925 27:-0.918687 28:-0.887907 29:-0.905225 30:-0.921264 31:-0.898629 32:-0.910465 33:-0.886291 34:-0.848411 35:-0.895083 36:-0.893681 37:-0.884748 38:-0.9065 39:-0.895802 40:-0.808741 41:-0.858524 42:-0.861861 43:-0.866296 44:-0.87871 45:-0.830967 46:-0.738153 47:-0.84397 48:-0.806602 49:-0.849021 50:-0.896117 51:-0.841097 52:-0.73079 53:-0.766473 54:-0.804406 55:-0.863589 56:-0.796855 57:-0.804261 58:-0.677539 59:-0.747412 60:-0.741844 61:-0.827119 62:-0.866203 63:-0.813953 64:-0.622729 65:-0.702929 66:-0.805186 67:-0.901604 68:-0.716319 69:-0.759677 70:-0.558749 71:-0.705895 72:-0.707103 73:-0.84009 74:-0.871607 75:-0.775726 
536.269423306993 1:-0.895178 2:-0.905773 3:-0.903585 4:-0.915006 5:-0.897726 6:-0.902796 7:-0.892904 8:-0.909792 9:-0.909799 10:-0.836864 11:-0.884732 12:-0.932836 13:-0.748266 14:-0.856633 15:-0.933847 16:-0.729481 17:-0.741947 18:-0.735561 19:-0.74021 20:-0.740317 21:-0.728163 22:-0.735157 23:-0.736189 24:-0.731403 25:-0.739222 26:-0.739334 27:-0.72981 28:-0.735479 29:-0.729987 30:-0.741858 31:-0.733333 32:-0.742345 33:-0.729701 34:-0.711677 35:-0.720311 36:-0.719266 37:-0.726741 38:-0.737705 39:-0.744749 40:-0.72636 41:-0.731554 42:-0.726022 43:-0.750397 44:-0.764718 45:-0.745545 46:-0.689193 47:-0.723268 48:-0.688394 49:-0.777472 50:-0.789073 51:-0.760174 52:-0.709065 53:-0.707175 54:-0.732548 55:-0.836116 56:-0.757943 57:-0.77135 58:-0.678751 59:-0.70835 60:-0.688842 61:-0.823264 62:-0.832037 63:-0.779528 64:-0.597974 65:-0.694895 66:-0.786874 67:-0.891262 68:-0.698255 69:-0.743345 70:-0.571186 71:-0.69698 72:-0.686881 73:-0.847032 74:-0.862323 75:-0.764656 
-819.586355023158 1:-0.644129 2:-0.660201 3:-0.647559 4:-0.859226 5:-0.72382 6:-0.660709 7:-0.899642 8:-0.866308 9:-0.746919 10:-0.84767 11:-0.878492 12:-0.897478 13:-0.755854 14:-0.85667 15:-0.92976 16:-0.477106 17:-0.498026 18:-0.482766 19:-0.501503 20:-0.498827 21:-0.473978 22:-0.505141 23:-0.494078 24:-0.47365 25:-0.499861 26:-0.502806 27:-0.476821 28:-0.510751 29:-0.492867 30:-0.504056 31:-0.499459 32:-0.510108 33:-0.517099 34:-0.50232 35:-0.484515 36:-0.480541 37:-0.504577 38:-0.513901 39:-0.532031 40:-0.61112 41:-0.535356 42:-0.535552 43:-0.580976 44:-0.597885 45:-0.643353 46:-0.583751 47:-0.547423 48:-0.530181 49:-0.656203 50:-0.629584 51:-0.65569 52:-0.667643 53:-0.607427 54:-0.670951 55:-0.779904 56:-0.691137 57:-0.739464 58:-0.658495 59:-0.629232 60:-0.633605 61:-0.786556 62:-0.780457 63:-0.754463 64:-0.594295 65:-0.674079 66:-0.777551 67:-0.872664 68:-0.678796 69:-0.738855 70:-0.561265 71:-0.707833 72:-0.664242 73:-0.843944 74:-0.845773 75:-0.758851 
131.494827123945 1:-0.215519 2:-0.207239 3:-0.217982 4:-0.738998 5:-0.402734 6:-0.188367 7:-0.894281 8:-0.795137 9:-0.4233 10:-0.864008 11:-0.872451 12:-0.838264 13:-0.774188 14:-0.864181 15:-0.922475 16:-0.204039 17:-0.205232 18:-0.193295 19:-0.241147 20:-0.204315 21:-0.205723 22:-0.234219 23:-0.199673 24:-0.199724 25:-0.237889 26:-0.208946 27:-0.20271 28:-0.266583 29:-0.225353 30:-0.217921 31:-0.230046 32:-0.251426 33:-0.273216 34:-0.272897 35:-0.214821 36:-0.20973 37:-0.237383 38:-0.26514 39:-0.292379 40:-0.464745 41:-0.321784 42:-0.316599 43:-0.348125 44:-0.431299 45:-0.5069 46:-0.455026 47:-0.366616 48:-0.337577 49:-0.505302 50:-0.483573 51:-0.526506 52:-0.638907 53:-0.529156 54:-0.556052 55:-0.691201 56:-0.614769 57:-0.698431 58:-0.637509 59:-0.574976 60:-0.588704 61:-0.753818 62:-0.703561 63:-0.727044 64:-0.591994 65:-0.655165 66:-0.735557 67:-0.841974 68:-0.67654 69:-0.718682 70:-0.589713 71:-0.697617 72:-0.659543 73:-0.85141 74:-0.816137 75:-0.781531 
3000 1:-0.996119 2:-0.999988 3:-0.999988 4:-0.948897 5:-0.995933 6:-0.999888 7:-0.894287 8:-0.957531 9:-0.991969 10:-0.83443 11:-0.902861 12:-0.961704 13:-0.748182 14:-0.863913 15:-0.942096 16:-0.992269 17:-0.995342 18:-0.997688 19:-0.996096 20:-0.995512 21:-0.992606 22:-0.978474 23:-0.992973 24:-0.993885 25:-0.991814 26:-0.994709 27:-0.991459 28:-0.952078 29:-0.974052 30:-0.98174 31:-0.975524 32:-0.975522 33:-0.959775 34:-0.893359 35:-0.965167 36:-0.961091 37:-0.950591 38:-0.974431 39:-0.954609 40:-0.856109 41:-0.909281 42:-0.922894 43:-0.920436 44:-0.916451 45:-0.888063 46:-0.750423 47:-0.889308 48:-0.870882 49:-0.876284 50:-0.935133 51:-0.880192 52:-0.757329 53:-0.791437 54:-0.84128 55:-0.885622 56:-0.817597 57:-0.820928 58:-0.687572 59:-0.764898 60:-0.787841 61:-0.822197 62:-0.885861 63:-0.827744 64:-0.62896 65:-0.709493 66:-0.819631 67:-0.906113 68:-0.718889 69:-0.764902 70:-0.563058 71:-0.717074 72:-0.723417 73:-0.833909 74:-0.875553 75:-0.786133 
-1018.063821432523 1:-0.998881 2:-0.999983 3:-0.999984 4:-0.973051 5:-0.999685 6:-0.999872 7:-0.920372 8:-0.984185 9:-0.998709 10:-0.850172 11:-0.927018 12:-0.979482 13:-0.756083 14:-0.874147 15:-0.950481 16:-0.993036 17:-0.995257 18:-0.998431 19:-0.996984 20:-0.995116 21:-0.993399 22:-0.97979 23:-0.992332 24:-0.994912 25:-0.992725 26:-0.994394 27:-0.992075 28:-0.954255 29:-0.975191 30:-0.983785 31:-0.980355 32:-0.974748 33:-0.962043 34:-0.899521 35:-0.96414 36:-0.964264 37:-0.955191 38:-0.975054 39:-0.954595 40:-0.861564 41:-0.912236 42:-0.925126 43:-0.933697 44:-0.918603 45:-0.889161 46:-0.760129 47:-0.891193 48:-0.875996 49:-0.883645 50:-0.939417 51:-0.876882 52:-0.759537 53:-0.796298 54:-0.842028 55:-0.895946 56:-0.820668 57:-0.825495 58:-0.689009 59:-0.774373 60:-0.790917 61:-0.824548 62:-0.892699 63:-0.828568 64:-0.62898 65:-0.716432 66:-0.815524 67:-0.915182 68:-0.719342 69:-0.771252 70:-0.55828 71:-0.724964 72:-0.73055 73:-0.83394 74:-0.868876 75:-0.794011 
3000 1:-0.999587 2:-0.999972 3:-0.999982 4:-0.983994 5:-0.999915 6:-0.99983 7:-0.941971 8:-0.995176 9:-0.999504 10:-0.86872 11:-0.952514 12:-0.991818 13:-0.76505 14:-0.886858 15:-0.960662 16:-0.993831 17:-0.995251 18:-0.9988 19:-0.99768 20:-0.994813 21:-0.994085 22:-0.980745 23:-0.991879 24:-0.995588 25:-0.993333 26:-0.994295 27:-0.992498 28:-0.957231 29:-0.97524 30:-0.984892 31:-0.984739 32:-0.973502 33:-0.963894 34:-0.905143 35:-0.961671 36:-0.968171 37:-0.958547 38:-0.974346 39:-0.956007 40:-0.865596 41:-0.91656 42:-0.927923 43:-0.944624 44:-0.917751 45:-0.893632 46:-0.769331 47:-0.890674 48:-0.882892 49:-0.889911 50:-0.941293 51:-0.877364 52:-0.761657 53:-0.802964 54:-0.843661 55:-0.90466 56:-0.822503 57:-0.831498 58:-0.698872 59:-0.777554 60:-0.785564 61:-0.833052 62:-0.896867 63:-0.826648 64:-0.621906 65:-0.726408 66:-0.819511 67:-0.910964 68:-0.720175 69:-0.774184 70:-0.567612 71:-0.725285 72:-0.721528 73:-0.836643 74:-0.873658 75:-0.794965 
-1515.547456890884 1:-0.999811 2:-0.999967 3:-0.999981 4:-0.988722 5:-0.999879 6:-0.999796 7:-0.956649 8:-0.998311 9:-0.999483 10:-0.886337 11:-0.97305 12:-0.997101 13:-0.772516 14:-0.901894 15:-0.971932 16:-0.994397 17:-0.995305 18:-0.998963 19:-0.998099 20:-0.99477 21:-0.994438 22:-0.98136 23:-0.991583 24:-0.995903 25:-0.99367 26:-0.994139 27:-0.992887 28:-0.959531 29:-0.975832 30:-0.985208 31:-0.987394 32:-0.972918 33:-0.965973 34:-0.908145 35:-0.959691 36:-0.969392 37:-0.960819 38:-0.973829 39:-0.956754 40:-0.86885 41:-0.920325 42:-0.927004 43:-0.953764 44:-0.917677 45:-0.896585 46:-0.775707 47:-0.887614 48:-0.884151 49:-0.896458 50:-0.940149 51:-0.878191 52:-0.76456 53:-0.806973 54:-0.840799 55:-0.919201 56:-0.829129 57:-0.830518 58:-0.704815 59:-0.784077 60:-0.771287 61:-0.844416 62:-0.892598 63:-0.826772 64:-0.632921 65:-0.715106 66:-0.820598 67:-0.910367 68:-0.723345 69:-0.762959 70:-0.573957 71:-0.738104 72:-0.713041 73:-0.839894 74:-0.868994 75:-0.791103 
-3000 1:-0.979414 2:-0.996084 3:-0.999451 4:-0.914454 5:-0.966827 6:-0.996534 7:-0.877192 8:-0.92661 9:-0.972083 10:-0.826035 11:-0.885716 12:-0.946069 13:-0.742334 14:-0.855946 15:-0.934881 16:-0.988837 17:-0.992264 18:-0.996083 19:-0.991611 20:-0.99287 21:-0.988078 22:-0.975084 23:-0.989906 24:-0.991532 25:-0.987679 26:-0.991839 27:-0.988749 28:-0.936251 29:-0.964818 30:-0.972131 31:-0.962587 32:-0.968186 33:-0.939886 34:-0.887911 35:-0.955902 36:-0.949124 37:-0.939955 38:-0.96492 39:-0.942591 40:-0.830975 41:-0.889884 42:-0.893146 43:-0.907448 44:-0.905301 45:-0.855582 46:-0.750035 47:-0.874261 48:-0.842571 49:-0.867409 50:-0.920969 51:-0.861051 52:-0.734973 53:-0.772528 54:-0.814423 55:-0.878764 56:-0.802515 57:-0.810589 58:-0.680926 59:-0.752038 60:-0.763719 61:-0.822368 62:-0.874239 63:-0.819707 64:-0.614782 65:-0.706256 66:-0.816371 67:-0.893952 68:-0.715056 69:-0.753959 70:-0.562978 71:-0.713422 72:-0.72 73:-0.829043 74:-0.869556 75:-0.778683 
3000 1:-0.983789 2:-0.997728 3:-0.999801 4:-0.922797 5:-0.973543 6:-0.997556 7:-0.881444 8:-0.931414 9:-0.975345 10:-0.828009 11:-0.88602 12:-0.946947 13:-0.744231 14:-0.855247 15:-0.93549 16:-0.988576 17:-0.992282 18:-0.996093 19:-0.992123 20:-0.992719 21:-0.987727 22:-0.973387 23:-0.990108 24:-0.991651 25:-0.988014 26:-0.991612 27:-0.988166 28:-0.933662 29:-0.962905 30:-0.970623 31:-0.963591 32:-0.965757 33:-0.936631 34:-0.884434 35:-0.953712 36:-0.948018 37:-0.940106 38:-0.963561 39:-0.93803 40:-0.818518 41:-0.887057 42:-0.882078 43:-0.908834 44:-0.901199 45:-0.845299 46:-0.746119 47:-0.872385 48:-0.832571 49:-0.868148 50:-0.916645 51:-0.847742 52:-0.716975 53:-0.758657 54:-0.796761 55:-0.882339 56:-0.798919 57:-0.796467 58:-0.684727 59:-0.749317 60:-0.750707 61:-0.819116 62:-0.868639 63:-0.808159 64:-0.609352 65:-0.702572 66:-0.796106 67:-0.904665 68:-0.706464 69:-0.748172 70:-0.563121 71:-0.712035 72:-0.709851 73:-0.830018 74:-0.870782 75:-0.766454 
3000 1:-0.987819 2:-0.9986 3:-0.999931 4:-0.933752 5:-0.98074 6:-0.998617 7:-0.889523 8:-0.94099 9:-0.981 10:-0.831961 11:-0.891486 12:-0.951102 13:-0.745143 14:-0.855427 15:-0.934981 16:-0.988518 17:-0.992505 18:-0.996404 19:-0.992573 20:-0.992671 21:-0.987909 22:-0.972852 23:-0.990245 24:-0.991863 25:-0.988536 26:-0.991793 27:-0.98799 28:-0.931977 29:-0.962581 30:-0.97051 31:-0.964368 32:-0.964319 33:-0.937115 34:-0.880032 35:-0.955108 36:-0.947307 37:-0.940155 38:-0.964273 39:-0.935988 40:-0.815697 41:-0.881899 42:-0.881628 43:-0.908288 44:-0.895405 45:-0.841547 46:-0.74117 47:-0.872906 48:-0.826231 49:-0.867669 50:-0.917489 51:-0.841253 52:-0.714943 53:-0.75929 54:-0.789784 55:-0.883054 56:-0.794095 57:-0.786197 58:-0.687282 59:-0.748269 60:-0.738668 61:-0.822442 62:-0.866678 63:-0.798497 64:-0.606819 65:-0.694103 66:-0.802309 67:-0.897118 68:-0.706569 69:-0.740823 70:-0.567633 71:-0.712251 72:-0.698378 73:-0.840627 74:-0.853205 75:-0.773488 
-3000 1:-0.992842 2:-0.999461 3:-0.999967 4:-0.946761 5:-0.987671 6:-0.999152 7:-0.901969 8:-0.953158 9:-0.98625 10:-0.840148 11:-0.902965 12:-0.958884 13:-0.74952 14:-0.858924 15:-0.939067 16:-0.989013 17:-0.992739 18:-0.996829 19:-0.992758 20:-0.992741 21:-0.988575 22:-0.971552 23:-0.990027 24:-0.992738 25:-0.988812 26:-0.991921 27:-0.987758 28:-0.93162 29:-0.963756 30:-0.970787 31:-0.964186 32:-0.964147 33:-0.936724 34:-0.873978 35:-0.953139 36:-0.949672 37:-0.939991 38:-0.964821 39:-0.932618 40:-0.812411 41:-0.880553 42:-0.882493 43:-0.902792 44:-0.895398 45:-0.837142 46:-0.726593 47:-0.870051 48:-0.827909 49:-0.865535 50:-0.917268 51:-0.832477 52:-0.712194 53:-0.754555 54:-0.777659 55:-0.87652 56:-0.78735 57:-0.786939 58:-0.674033 59:-0.746906 60:-0.724224 61:-0.826124 62:-0.862298 63:-0.78818 64:-0.599795 65:-0.703644 66:-0.787181 67:-0.896708 68:-0.695555 69:-0.745242 70:-0.562761 71:-0.706067 72:-0.692259 73:-0.840914 74:-0.843803 75:-0.771348 
3000 1:-0.979847 2:-0.998613 3:-0.999985 4:-0.905505 5:-0.968433 6:-0.996507 7:-0.872337 8:-0.922934 9:-0.967032 10:-0.828681 11:-0.885927 12:-0.939068 13:-0.755774 14:-0.863334 15:-0.936679 16:-0.995793 17:-0.995565 18:-0.996541 19:-0.986563 20:-0.995907 21:-0.995386 22:-0.961346 23:-0.99397 24:-0.99573 25:-0.979328 26:-0.99505 27:-0.995659 28:-0.955867 29:-0.972473 30:-0.974578 31:-0.950284 32:-0.974573 33:-0.95988 34:-0.863812 35:-0.964499 36:-0.961094 37:-0.921792 38:-0.972421 39:-0.958142 40:-0.861527 41:-0.893927 42:-0.912991 43:-0.885653 44:-0.911563 45:-0.886822 46:-0.725223 47:-0.885107 48:-0.870477 49:-0.853674 50:-0.926823 51:-0.877592 52:-0.778819 53:-0.755468 54:-0.843586 55:-0.872189 56:-0.796634 57:-0.843948 58:-0.671766 59:-0.744119 60:-0.802999 61:-0.818486 62:-0.86664 63:-0.84099 64:-0.641994 65:-0.705994 66:-0.810013 67:-0.893129 68:-0.71038 69:-0.768486 70:-0.577049 71:-0.717179 72:-0.729314 73:-0.838226 74:-0.862928 75:-0.792504 
-1595.273238605448 1:-0.973705 2:-0.998949 3:-0.99999 4:-0.890377 5:-0.965508 6:-0.996607 7:-0.855085 8:-0.916298 9:-0.962374 10:-0.812981 11:-0.873875 12:-0.932233 13:-0.741156 14:-0.85064 15:-0.930317 16:-0.99724 17:-0.996212 18:-0.997582 19:-0.985742 20:-0.99667 21:-0.997274 22:-0.960567 23:-0.994905 24:-0.996964 25:-0.977072 26:-0.996391 27:-0.997503 28:-0.961249 29:-0.973632 30:-0.976517 31:-0.946606 32:-0.976809 33:-0.963037 34:-0.855828 35:-0.966529 36:-0.964729 37:-0.910678 38:-0.976455 39:-0.965219 40:-0.877409 41:-0.895916 42:-0.915081 43:-0.876259 44:-0.909987 45:-0.899614 46:-0.704358 47:-0.87999 48:-0.884069 49:-0.829042 50:-0.928042 51:-0.898278 52:-0.795879 53:-0.735732 54:-0.848594 55:-0.861324 56:-0.789379 57:-0.851685 58:-0.64864 59:-0.730911 60:-0.81798 61:-0.799478 62:-0.863598 63:-0.854013 64:-0.63429 65:-0.701042 66:-0.815287 67:-0.886858 68:-0.710486 69:-0.768811 70:-0.538106 71:-0.715886 72:-0.726544 73:-0.825838 74:-0.8693 75:-0.8001 
-3000 1:-0.995097 2:-0.999923 3:-0.999989 4:-0.945287 5:-0.994399 6:-0.999852 7:-0.892594 8:-0.95601 9:-0.991619 10:-0.83338 11:-0.902432 12:-0.962023 13:-0.74646 14:-0.864607 15:-0.94251 16:-0.992874 17:-0.995727 18:-0.997248 19:-0.994715 20:-0.996265 21:-0.992675 22:-0.977064 23:-0.993648 24:-0.993704 25:-0.989849 26:-0.995312 27:-0.992056 28:-0.957475 29:-0.972686 30:-0.980818 31:-0.971993 32:-0.975547 33:-0.962374 34:-0.890021 35:-0.963067 36:-0.962516 37:-0.945174 38:-0.973766 39:-0.958896 40:-0.86576 41:-0.904378 42:-0.923134 43:-0.916494 44:-0.913689 45:-0.895496 46:-0.745962 47:-0.879166 48:-0.878144 49:-0.87049 50:-0.932336 51:-0.885062 52:-0.758783 53:-0.787572 54:-0.837857 55:-0.882336 56:-0.817531 57:-0.831031 58:-0.675555 59:-0.761848 60:-0.791202 61:-0.81639 62:-0.891521 63:-0.825861 64:-0.63495 65:-0.715617 66:-0.811019 67:-0.904686 68:-0.721618 69:-0.761105 70:-0.561903 71:-0.71382 72:-0.728096 73:-0.831643 74:-0.873649 75:-0.777102 
-3000 1:-0.998832 2:-0.999971 3:-0.999984 4:-0.975848 5:-0.999241 6:-0.999866 7:-0.927687 8:-0.987669 9:-0.998938 10:-0.857933 11:-0.939446 12:-0.981724 13:-0.76221 14:-0.883238 15:-0.956074 16:-0.994133 17:-0.995696 18:-0.997898 19:-0.995167 20:-0.995692 21:-0.994051 22:-0.978263 23:-0.99322 24:-0.994635 25:-0.99031 26:-0.994851 27:-0.993451 28:-0.959759 29:-0.976958 30:-0.98091 31:-0.972007 32:-0.977868 33:-0.964081 34:-0.893973 35:-0.967413 36:-0.963009 37:-0.944938 38:-0.976503 39:-0.960121 40:-0.877597 41:-0.912604 42:-0.919657 43:-0.919527 44:-0.91963 45:-0.898391 46:-0.750723 47:-0.892324 48:-0.87719 49:-0.867609 50:-0.936535 51:-0.89195 52:-0.778949 53:-0.781425 54:-0.836358 55:-0.889336 56:-0.815656 57:-0.838081 58:-0.687851 59:-0.76382 60:-0.790739 61:-0.817663 62:-0.887264 63:-0.836675 64:-0.619905 65:-0.700341 66:-0.826725 67:-0.911947 68:-0.731022 69:-0.768408 70:-0.550294 71:-0.744129 72:-0.719956 73:-0.835539 74:-0.880619 75:-0.794756 
278.0321722646442 1:-0.99931 2:-0.999965 3:-0.999982 4:-0.982695 5:-0.999472 6:-0.999838 7:-0.940857 8:-0.99441 9:-0.999408 10:-0.871683 11:-0.954088 12:-0.989924 13:-0.766252 14:-0.889663 15:-0.95986 16:-0.994528 17:-0.995809 18:-0.997958 19:-0.995363 20:-0.995871 21:-0.994814 22:-0.978062 23:-0.993065 24:-0.995223 25:-0.99072 26:-0.994548 27:-0.994047 28:-0.960745 29:-0.977749 30:-0.980332 31:-0.973431 32:-0.978946 33:-0.968402 34:-0.892136 35:-0.96737 36:-0.96403 37:-0.948418 38:-0.975098 39:-0.962456 40:-0.878281 41:-0.92159 42:-0.913149 43:-0.914436 44:-0.932291 45:-0.907706 46:-0.739818 47:-0.901218 48:-0.873382 49:-0.875049 50:-0.937448 51:-0.895143 52:-0.792536 53:-0.774613 54:-0.82557 55:-0.896925 56:-0.823263 57:-0.852249 58:-0.681818 59:-0.761314 60:-0.782972 61:-0.835493 62:-0.875046 63:-0.846378 64:-0.64827 65:-0.685113 66:-0.816136 67:-0.902336 68:-0.743226 69:-0.757407 70:-0.57521 71:-0.716309 72:-0.716151 73:-0.846506 74:-0.861121 75:-0.804967 
-696.9116883966391 1:-0.91119 2:-0.940532 3:-0.953967 4:-0.871384 5:-0.896958 6:-0.926023 7:-0.861426 8:-0.87624 9:-0.856889 10:-0.824741 11:-0.871633 12:-0.863023 13:-0.751454 14:-0.861256 15:-0.92653 16:-0.945032 17:-0.953954 18:-0.940624 19:-0.933399 20:-0.95516 21:-0.94411 22:-0.923434 23:-0.951434 24:-0.938809 25:-0.931098 26:-0.953896 27:-0.9435 28:-0.880534 29:-0.900344 30:-0.895763 31:-0.87928 32:-0.908666 33:-0.884077 34:-0.821057 35:-0.896726 36:-0.878028 37:-0.863867 38:-0.907642 39:-0.886924 40:-0.781626 41:-0.798952 42:-0.787666 43:-0.78554 44:-0.824811 45:-0.815115 46:-0.689268 47:-0.806931 48:-0.762042 49:-0.78557 50:-0.85886 51:-0.820982 52:-0.725426 53:-0.694009 54:-0.710955 55:-0.801237 56:-0.744622 57:-0.796277 58:-0.670325 59:-0.723759 60:-0.7235 61:-0.776307 62:-0.838222 63:-0.81721 64:-0.616856 65:-0.667566 66:-0.77095 67:-0.887695 68:-0.699302 69:-0.746703 70:-0.570836 71:-0.726659 72:-0.715867 73:-0.830488 74:-0.865205 75:-0.800103 
969.8534464039645 1:-0.79008 2:-0.822986 3:-0.855447 4:-0.790556 5:-0.78738 6:-0.872679 7:-0.834361 8:-0.826133 9:-0.711263 10:-0.823609 11:-0.858908 12:-0.794252 13:-0.759864 14:-0.861022 15:-0.916955 16:-0.862285 17:-0.907731 18:-0.850199 19:-0.843657 20:-0.910212 21:-0.861424 22:-0.840376 23:-0.904361 24:-0.848881 25:-0.8439 26:-0.908622 27:-0.861524 28:-0.787405 29:-0.833684 30:-0.793946 31:-0.774486 32:-0.847615 33:-0.793091 34:-0.735183 35:-0.832515 36:-0.774237 37:-0.766251 38:-0.849666 39:-0.803476 40:-0.679445 41:-0.683646 42:-0.650537 43:-0.65937 44:-0.735152 45:-0.719511 46:-0.602138 47:-0.71168 48:-0.650304 49:-0.70421 50:-0.777742 51:-0.736663 52:-0.678793 53:-0.606302 54:-0.611424 55:-0.703449 56:-0.697659 57:-0.754433 58:-0.637328 59:-0.648682 60:-0.674499 61:-0.748314 62:-0.788981 63:-0.777576 64:-0.613944 65:-0.634428 66:-0.722634 67:-0.847838 68:-0.678751 69:-0.735965 70:-0.563649 71:-0.711179 72:-0.709619 73:-0.832872 74:-0.85204 75:-0.787783 
3.314075064112156 1:-0.719151 2:-0.768469 3:-0.823659 4:-0.737058 5:-0.672325 6:-0.8054 7:-0.819252 8:-0.781768 9:-0.577794 10:-0.829865 11:-0.851453 12:-0.74228 13:-0.771749 14:-0.860879 15:-0.910457 16:-0.80059 17:-0.86782 18:-0.791734 19:-0.788255 20:-0.868757 21:-0.798684 22:-0.785543 23:-0.863687 24:-0.79116 25:-0.78812 26:-0.867731 27:-0.800882 28:-0.675837 29:-0.751147 30:-0.701549 31:-0.689006 32:-0.765628 33:-0.679692 34:-0.637403 35:-0.747563 36:-0.689371 37:-0.677094 38:-0.770711 39:-0.697125 40:-0.569147 41:-0.593698 42:-0.539097 43:-0.559985 44:-0.652415 45:-0.611907 46:-0.5173 47:-0.619661 48:-0.557882 49:-0.638434 50:-0.700095 51:-0.639312 52:-0.650375 53:-0.559057 54:-0.541177 55:-0.644947 56:-0.64663 57:-0.719016 58:-0.623089 59:-0.599297 60:-0.631557 61:-0.71745 62:-0.745816 63:-0.746489 64:-0.614026 65:-0.615268 66:-0.698017 67:-0.839254 68:-0.650778 69:-0.728559 70:-0.573262 71:-0.682226 72:-0.707353 73:-0.831139 74:-0.832342 75:-0.779221 
-80.44521438346436 1:-0.538231 2:-0.593364 3:-0.74784 4:-0.584879 5:-0.303944 6:-0.528311 7:-0.788516 8:-0.686694 9:-0.261918 10:-0.864431 11:-0.863498 12:-0.686141 13:-0.838247 14:-0.893992 15:-0.915364 16:-0.699742 17:-0.803288 18:-0.68723 19:-0.687561 20:-0.803496 21:-0.700122 22:-0.690878 23:-0.797563 24:-0.687394 25:-0.687013 26:-0.803838 27:-0.702263 28:-0.488836 29:-0.629899 30:-0.469341 31:-0.462399 32:-0.650764 33:-0.495256 34:-0.464975 35:-0.623514 36:-0.463183 37:-0.452574 38:-0.660884 39:-0.516872 40:-0.403471 41:-0.4415 42:-0.332177 43:-0.372864 44:-0.526865 45:-0.464782 46:-0.396206 47:-0.468321 48:-0.379373 49:-0.512852 50:-0.574918 51:-0.511977 52:-0.618729 53:-0.49725 54:-0.415917 55:-0.509149 56:-0.629539 57:-0.690507 58:-0.615454 59:-0.534326 60:-0.540022 61:-0.670515 62:-0.6917 63:-0.741719 64:-0.62958 65:-0.612741 66:-0.657573 67:-0.769752 68:-0.699691 69:-0.726265 70:-0.611232 71:-0.652746 72:-0.688287 73:-0.82608 74:-0.82813 75:-0.801458 
-1388.648818716217 1:-0.98456 2:-0.99008 3:-0.991293 4:-0.958727 5:-0.978062 6:-0.990186 7:-0.936219 8:-0.959365 9:-0.984498 10:-0.904097 11:-0.948887 12:-0.972478 13:-0.863903 14:-0.940435 15:-0.95486 16:-0.923805 17:-0.924315 18:-0.927132 19:-0.917232 20:-0.923243 21:-0.921368 22:-0.915819 23:-0.921163 24:-0.921919 25:-0.915633 26:-0.920987 27:-0.922321 28:-0.917496 29:-0.920434 30:-0.921116 31:-0.896306 32:-0.920598 33:-0.910409 34:-0.883905 35:-0.915796 36:-0.894862 37:-0.879355 38:-0.913737 39:-0.913763 40:-0.897967 41:-0.91805 42:-0.86295 43:-0.850067 44:-0.912771 45:-0.887534 46:-0.831558 47:-0.914913 48:-0.812915 49:-0.830271 50:-0.917952 51:-0.885609 52:-0.89015 53:-0.889198 54:-0.800956 55:-0.818148 56:-0.864736 57:-0.883635 58:-0.807589 59:-0.887764 60:-0.754686 61:-0.802406 62:-0.882622 63:-0.887558 64:-0.858105 65:-0.87578 66:-0.798342 67:-0.779499 68:-0.815 69:-0.854682 70:-0.736168 71:-0.87341 72:-0.727352 73:-0.825684 74:-0.848017 75:-0.866368 
684.0729807980466 1:-0.647462 2:-0.662284 3:-0.648559 4:-0.883138 5:-0.743978 6:-0.665122 7:-0.946228 8:-0.902567 9:-0.763407 10:-0.921696 11:-0.941397 12:-0.929699 13:-0.875617 14:-0.940746 15:-0.948512 16:-0.479369 17:-0.499246 18:-0.483065 19:-0.502231 20:-0.499818 21:-0.477499 22:-0.508651 23:-0.496604 24:-0.473438 25:-0.499521 26:-0.504071 27:-0.479117 28:-0.529848 29:-0.500537 30:-0.505774 31:-0.497078 32:-0.515284 33:-0.539187 34:-0.528128 35:-0.496448 36:-0.481157 37:-0.501522 38:-0.515409 39:-0.547541 40:-0.677787 41:-0.582494 42:-0.534445 43:-0.572923 44:-0.629924 45:-0.690684 46:-0.661416 47:-0.606409 48:-0.530242 49:-0.642033 50:-0.647342 51:-0.701411 52:-0.791837 53:-0.738805 54:-0.644498 55:-0.737062 56:-0.756861 57:-0.818062 58:-0.785849 59:-0.757747 60:-0.615682 61:-0.788376 62:-0.783777 63:-0.82354 64:-0.804062 65:-0.851846 66:-0.731625 67:-0.786187 68:-0.789553 69:-0.835644 70:-0.742939 71:-0.840002 72:-0.681291 73:-0.839005 74:-0.827986 75:-0.842079 
-36.1464037802234 1:-0.208676 2:-0.204323 3:-0.210875 4:-0.753992 5:-0.418004 6:-0.187553 7:-0.935063 8:-0.825117 9:-0.443528 10:-0.931841 11:-0.931629 12:-0.863342 13:-0.888807 14:-0.943976 15:-0.946993 16:-0.203903 17:-0.205975 18:-0.191091 19:-0.239023 20:-0.206773 21:-0.2054 22:-0.233193 23:-0.202823 24:-0.197179 25:-0.235066 26:-0.210235 27:-0.20059 28:-0.278455 29:-0.229292 30:-0.216171 31:-0.228097 32:-0.250489 33:-0.286323 34:-0.291813 35:-0.225363 36:-0.208012 37:-0.229364 38:-0.26284 39:-0.302165 40:-0.513408 41:-0.368878 42:-0.301801 43:-0.353613 44:-0.447378 45:-0.550081 46:-0.523773 47:-0.415932 48:-0.334505 49:-0.494729 50:-0.483002 51:-0.573698 52:-0.747489 53:-0.645122 54:-0.527933 55:-0.649846 56:-0.69678 57:-0.773776 58:-0.756729 59:-0.675442 60:-0.587481 61:-0.738808 62:-0.709294 63:-0.796077 64:-0.787523 65:-0.820603 66:-0.708008 67:-0.767442 68:-0.771562 69:-0.825539 70:-0.751512 71:-0.830305 72:-0.691602 73:-0.829323 74:-0.819463 75:-0.850469 
1873.461296049302 1:-0.997976 2:-1 3:-0.999992 4:-0.971893 5:-0.998275 6:-0.999955 7:-0.940431 8:-0.977212 9:-0.99734 10:-0.905936 11:-0.956445 12:-0.981346 13:-0.866734 14:-0.944764 15:-0.958844 16:-0.99815 17:-0.998224 18:-0.997481 19:-0.995535 20:-0.997553 21:-0.995222 22:-0.988698 23:-0.996892 24:-0.995519 25:-0.989227 26:-0.996155 27:-0.994921 28:-0.987102 29:-0.990464 30:-0.983478 31:-0.971316 32:-0.986692 33:-0.976376 34:-0.940634 35:-0.986016 36:-0.970828 37:-0.937715 38:-0.982698 39:-0.974111 40:-0.960299 41:-0.965338 42:-0.937092 43:-0.89528 44:-0.951171 45:-0.938196 46:-0.853759 47:-0.958114 48:-0.896854 49:-0.846095 50:-0.954937 51:-0.934326 52:-0.926205 53:-0.914179 54:-0.871421 55:-0.809785 56:-0.889571 57:-0.906055 58:-0.810192 59:-0.909181 60:-0.810448 61:-0.78839 62:-0.902368 63:-0.912691 64:-0.873953 65:-0.883459 66:-0.84515 67:-0.749245 68:-0.816937 69:-0.870133 70:-0.735321 71:-0.867726 72:-0.766241 73:-0.810866 74:-0.852402 75:-0.88003 
-3000 1:-0.999444 2:-0.999991 3:-0.999988 4:-0.985048 5:-0.999923 6:-0.999915 7:-0.954198 8:-0.991393 9:-0.999536 10:-0.914636 11:-0.966797 12:-0.988865 13:-0.870937 14:-0.948433 15:-0.963452 16:-0.998603 17:-0.99808 18:-0.997881 19:-0.996226 20:-0.997172 21:-0.995771 22:-0.98966 23:-0.9964 24:-0.996029 25:-0.990384 26:-0.995244 27:-0.995776 28:-0.988432 29:-0.990801 30:-0.98466 31:-0.974822 32:-0.985746 33:-0.977815 34:-0.944873 35:-0.985358 36:-0.971816 37:-0.943749 38:-0.980378 39:-0.97574 40:-0.960758 41:-0.967896 42:-0.938793 43:-0.904027 44:-0.951961 45:-0.938681 46:-0.862219 47:-0.959972 48:-0.895883 49:-0.856002 50:-0.952847 51:-0.934521 52:-0.925112 53:-0.922748 54:-0.871464 55:-0.815254 56:-0.893508 57:-0.907666 58:-0.811914 59:-0.914619 60:-0.812099 61:-0.794508 62:-0.904737 63:-0.909742 64:-0.872769 65:-0.886753 66:-0.846546 67:-0.754573 68:-0.814074 69:-0.868893 70:-0.740645 71:-0.873419 72:-0.764139 73:-0.815276 74:-0.852616 75:-0.880881 
3000 1:-0.999822 2:-0.99998 3:-0.999986 4:-0.990892 5:-1 6:-0.999876 7:-0.96675 8:-0.997484 9:-0.999742 10:-0.924728 11:-0.978469 12:-0.995245 13:-0.875269 14:-0.953338 15:-0.970225 16:-0.998898 17:-0.998022 18:-0.998315 19:-0.996611 20:-0.996961 21:-0.996277 22:-0.990239 23:-0.996047 24:-0.996464 25:-0.991206 26:-0.994602 27:-0.99639 28:-0.989867 29:-0.99043 30:-0.986584 31:-0.977223 32:-0.984739 33:-0.979903 34:-0.948188 35:-0.983758 36:-0.972943 37:-0.948926 38:-0.977171 39:-0.97816 40:-0.962946 41:-0.970344 42:-0.942679 43:-0.911323 44:-0.951403 45:-0.942582 46:-0.867916 47:-0.958206 48:-0.896277 49:-0.869389 50:-0.95004 51:-0.934276 52:-0.926382 53:-0.926505 54:-0.880305 55:-0.818529 56:-0.890852 57:-0.91322 58:-0.815882 59:-0.913568 60:-0.811198 61:-0.804275 62:-0.897694 63:-0.913124 64:-0.878923 65:-0.884474 66:-0.857897 67:-0.746279 68:-0.816232 69:-0.875641 70:-0.737278 71:-0.872011 72:-0.765477 73:-0.81218 74:-0.853843 75:-0.87915 
-3000 1:-0.992067 2:-0.998862 3:-0.999906 4:-0.959329 5:-0.988249 6:-0.99917 7:-0.934976 8:-0.963261 9:-0.991626 10:-0.902841 11:-0.949225 12:-0.973663 13:-0.86398 14:-0.940265 15:-0.954537 16:-0.995591 17:-0.995696 18:-0.996232 19:-0.99143 20:-0.995169 21:-0.992646 22:-0.984044 23:-0.994411 24:-0.992786 25:-0.986159 26:-0.993855 27:-0.993096 28:-0.972728 29:-0.981207 30:-0.975662 31:-0.957063 32:-0.97905 33:-0.962406 34:-0.928483 35:-0.977117 36:-0.955003 37:-0.930631 38:-0.974896 39:-0.963171 40:-0.928309 41:-0.946581 42:-0.91109 43:-0.874147 44:-0.937435 45:-0.910331 46:-0.843659 47:-0.940615 48:-0.857865 49:-0.841475 50:-0.942267 51:-0.90849 52:-0.891887 53:-0.892392 54:-0.835234 55:-0.803255 56:-0.871526 57:-0.882207 58:-0.813127 59:-0.888197 60:-0.770337 61:-0.79185 62:-0.89358 63:-0.88703 64:-0.845423 65:-0.877869 66:-0.837159 67:-0.735695 68:-0.811178 69:-0.861869 70:-0.727367 71:-0.868044 72:-0.746458 73:-0.814228 74:-0.847751 75:-0.868055 
-1589.0832188115 1:-0.996892 2:-0.999701 3:-0.999972 4:-0.973093 5:-0.994323 6:-0.999627 7:-0.946309 8:-0.974933 9:-0.995219 10:-0.909649 11:-0.956351 12:-0.980178 13:-0.867622 14:-0.941504 15:-0.955629 16:-0.99642 17:-0.99566 18:-0.996599 19:-0.992302 20:-0.99511 21:-0.993443 22:-0.983654 23:-0.993997 24:-0.993858 25:-0.987179 26:-0.993041 27:-0.993901 28:-0.973281 29:-0.979607 30:-0.975325 31:-0.958035 32:-0.976826 33:-0.963762 34:-0.92425 35:-0.974451 36:-0.956047 37:-0.933046 38:-0.970415 39:-0.964375 40:-0.919565 41:-0.942851 42:-0.901183 43:-0.871209 44:-0.934252 45:-0.906829 46:-0.830017 47:-0.935599 48:-0.843136 49:-0.848961 50:-0.933965 51:-0.90332 52:-0.874647 53:-0.88685 54:-0.814513 55:-0.794973 56:-0.872395 57:-0.876253 58:-0.7984 59:-0.885148 60:-0.742918 61:-0.80266 62:-0.883427 63:-0.878308 64:-0.828451 65:-0.865678 66:-0.802721 67:-0.755883 68:-0.802479 69:-0.851459 70:-0.734993 71:-0.867349 72:-0.721235 73:-0.819669 74:-0.841761 75:-0.86063 
3000 1:-0.991326 2:-0.998921 3:-0.999967 4:-0.953161 5:-0.985142 6:-0.99874 7:-0.93054 8:-0.961431 9:-0.990186 10:-0.900657 11:-0.950122 12:-0.975112 13:-0.863807 14:-0.943067 15:-0.955672 16:-0.99688 17:-0.997145 18:-0.99639 19:-0.989001 20:-0.996931 21:-0.994536 22:-0.980298 23:-0.995966 24:-0.994768 25:-0.981778 26:-0.995549 27:-0.994947 28:-0.981182 29:-0.986273 30:-0.981291 31:-0.957577 32:-0.98399 33:-0.971937 34:-0.928259 35:-0.98155 36:-0.966744 37:-0.924705 38:-0.979228 39:-0.973626 40:-0.952348 41:-0.961294 42:-0.931359 43:-0.884038 44:-0.948464 45:-0.932233 46:-0.847807 47:-0.953306 48:-0.886124 49:-0.837577 50:-0.954636 51:-0.929894 52:-0.927206 53:-0.911906 54:-0.875136 55:-0.806511 56:-0.887442 57:-0.908209 58:-0.80666 59:-0.909076 60:-0.804929 61:-0.78608 62:-0.90252 63:-0.911831 64:-0.875736 65:-0.88486 66:-0.847011 67:-0.749454 68:-0.818995 69:-0.872735 70:-0.732615 71:-0.87484 72:-0.757302 73:-0.809732 74:-0.857834 75:-0.880031 
812.6471188188475 1:-0.990511 2:-0.999212 3:-0.99999 4:-0.951192 5:-0.985382 6:-0.998729 7:-0.92901 8:-0.960535 9:-0.98925 10:-0.898849 11:-0.949033 12:-0.973935 13:-0.862133 14:-0.941148 15:-0.95485 16:-0.998246 17:-0.997841 18:-0.997677 19:-0.987781 20:-0.997527 21:-0.996669 22:-0.978261 23:-0.996779 24:-0.996942 25:-0.979103 26:-0.996689 27:-0.997201 28:-0.98278 29:-0.987761 30:-0.981145 31:-0.953779 32:-0.985184 33:-0.975156 34:-0.922862 35:-0.982828 36:-0.969979 37:-0.916892 38:-0.981626 39:-0.976539 40:-0.9511 41:-0.959185 42:-0.92788 43:-0.876983 44:-0.946992 45:-0.933129 46:-0.84303 47:-0.950638 48:-0.888068 49:-0.831313 50:-0.950431 51:-0.935649 52:-0.923113 53:-0.905565 54:-0.870339 55:-0.799575 56:-0.882094 57:-0.912863 58:-0.800308 59:-0.899976 60:-0.807646 61:-0.785125 62:-0.888877 63:-0.91551 64:-0.862725 65:-0.879382 66:-0.844169 67:-0.738115 68:-0.811267 69:-0.873484 70:-0.726216 71:-0.868457 72:-0.745143 73:-0.815943 74:-0.847419 75:-0.886159 
2054.966677007454 1:-0.998279 2:-0.999965 3:-0.999991 4:-0.979511 5:-0.999426 6:-0.999941 7:-0.949127 8:-0.989172 9:-0.999192 10:-0.911259 11:-0.962929 12:-0.987592 13:-0.869255 14:-0.946577 15:-0.965394 16:-0.998017 17:-0.998061 18:-0.998316 19:-0.99477 20:-0.99745 21:-0.996005 22:-0.988267 23:-0.996673 24:-0.996551 25:-0.988199 26:-0.995892 27:-0.995729 28:-0.986351 29:-0.990554 30:-0.987238 31:-0.967541 32:-0.987217 33:-0.980058 34:-0.937814 35:-0.986054 36:-0.975833 37:-0.932749 38:-0.982809 39:-0.976651 40:-0.962903 41:-0.962962 42:-0.94807 43:-0.891785 44:-0.947577 45:-0.948811 46:-0.848344 47:-0.952479 48:-0.914253 49:-0.838602 50:-0.950175 51:-0.942425 52:-0.92649 53:-0.911088 54:-0.88234 55:-0.809173 56:-0.887145 57:-0.909961 58:-0.808557 59:-0.904016 60:-0.82036 61:-0.788503 62:-0.898272 63:-0.915178 64:-0.87698 65:-0.882554 66:-0.846728 67:-0.743496 68:-0.828344 69:-0.868468 70:-0.731991 71:-0.878661 72:-0.760351 73:-0.814746 74:-0.850323 75:-0.883402 
3000 1:-0.999418 2:-0.999986 3:-0.999988 4:-0.986172 5:-0.99965 6:-0.999918 7:-0.958018 8:-0.993386 9:-0.999536 10:-0.917655 11:-0.973236 12:-0.991345 13:-0.871938 14:-0.951769 15:-0.968163 16:-0.998501 17:-0.998162 18:-0.99857 19:-0.994702 20:-0.997489 21:-0.996264 22:-0.988715 23:-0.996644 24:-0.996807 25:-0.988361 26:-0.99582 27:-0.996334 28:-0.98836 29:-0.991265 30:-0.988432 31:-0.967521 32:-0.987522 33:-0.980466 34:-0.940747 35:-0.985425 36:-0.976601 37:-0.934828 38:-0.982382 39:-0.978663 40:-0.966302 41:-0.968354 42:-0.949283 43:-0.887965 44:-0.953996 45:-0.948251 46:-0.854192 47:-0.95555 48:-0.911716 49:-0.841171 50:-0.954995 51:-0.941682 52:-0.934674 53:-0.921789 54:-0.878915 55:-0.810004 56:-0.8835 57:-0.91719 58:-0.80993 59:-0.90395 60:-0.82503 61:-0.786538 62:-0.897273 63:-0.919593 64:-0.876761 65:-0.891307 66:-0.853291 67:-0.73936 68:-0.817861 69:-0.859665 70:-0.742487 71:-0.873309 72:-0.778627 73:-0.803892 74:-0.849935 75:-0.890348 
-3000 1:-0.999686 2:-0.999979 3:-0.999986 4:-0.989726 5:-0.999761 6:-0.999889 7:-0.966623 8:-0.997381 9:-0.999687 10:-0.926638 11:-0.98055 12:-0.995452 13:-0.877901 14:-0.955324 15:-0.973828 16:-0.998549 17:-0.997959 18:-0.998709 19:-0.995259 20:-0.99741 21:-0.99698 22:-0.988813 23:-0.996216 24:-0.996828 25:-0.989214 26:-0.995386 27:-0.996753 28:-0.987719 29:-0.990123 30:-0.989635 31:-0.970307 32:-0.986621 33:-0.983404 34:-0.941881 35:-0.983304 36:-0.976838 37:-0.938783 38:-0.980646 39:-0.979907 40:-0.962112 41:-0.967796 42:-0.956275 43:-0.890857 44:-0.955437 45:-0.951418 46:-0.857101 47:-0.952414 48:-0.91332 49:-0.846364 50:-0.954425 51:-0.943918 52:-0.927075 53:-0.923253 54:-0.897112 55:-0.806838 56:-0.88686 57:-0.921141 58:-0.814558 59:-0.891644 60:-0.831504 61:-0.790933 62:-0.895178 63:-0.92364 64:-0.875256 65:-0.883074 66:-0.866638 67:-0.742072 68:-0.836316 69:-0.875258 70:-0.727464 71:-0.869287 72:-0.783231 73:-0.807412 74:-0.850316 75:-0.89228 
-2350.921850393009 1:-0.900891 2:-0.919995 3:-0.940065 4:-0.921913 5:-0.927608 6:-0.939345 7:-0.917665 8:-0.937728 9:-0.928912 10:-0.898095 11:-0.941216 12:-0.952281 13:-0.866322 14:-0.941882 15:-0.950964 16:-0.941196 17:-0.957839 18:-0.935375 19:-0.930606 20:-0.956829 21:-0.939791 22:-0.927489 23:-0.95584 24:-0.933726 25:-0.925324 26:-0.956123 27:-0.938814 28:-0.914867 29:-0.929493 30:-0.920296 31:-0.90291 32:-0.933368 33:-0.902774 34:-0.86536 35:-0.926561 36:-0.90862 37:-0.87627 38:-0.93084 39:-0.903284 40:-0.886138 41:-0.901566 42:-0.850546 43:-0.837512 44:-0.893937 45:-0.86299 46:-0.792622 47:-0.894994 48:-0.841035 49:-0.805884 50:-0.903538 51:-0.86972 52:-0.893117 53:-0.8554 54:-0.804501 55:-0.798918 56:-0.838442 57:-0.879885 58:-0.78884 59:-0.856421 60:-0.797112 61:-0.779491 62:-0.867282 63:-0.885276 64:-0.861979 65:-0.872171 66:-0.819207 67:-0.759087 68:-0.807918 69:-0.857538 70:-0.73057 71:-0.858218 72:-0.791058 73:-0.811089 74:-0.839983 75:-0.875204 
-97.4867264527778 1:-0.363532 2:-0.462363 3:-0.682973 4:-0.618959 5:-0.333322 6:-0.193115 7:-0.776095 8:-0.751652 9:-0.374727 10:-0.884158 11:-0.899955 12:-0.81605 13:-0.865803 14:-0.901584 15:-0.902928 16:-0.6468 17:-0.751367 18:-0.65661 19:-0.660538 20:-0.752717 21:-0.645738 22:-0.635781 23:-0.750705 24:-0.658911 25:-0.65404 26:-0.751432 27:-0.647001 28:-0.477251 29:-0.56536 30:-0.444121 31:-0.421377 32:-0.609394 33:-0.46205 34:-0.467627 35:-0.567886 36:-0.445738 37:-0.398718 38:-0.621041 39:-0.483552 40:-0.57141 41:-0.348829 42:-0.316421 43:-0.285112 44:-0.548091 45:-0.536131 46:-0.530268 47:-0.411112 48:-0.394886 49:-0.40958 50:-0.589942 51:-0.558501 52:-0.738123 53:-0.56957 54:-0.374782 55:-0.493472 56:-0.656535 57:-0.767041 58:-0.703126 59:-0.611119 60:-0.533608 61:-0.608762 62:-0.711687 63:-0.783432 64:-0.770937 65:-0.687401 66:-0.565207 67:-0.610193 68:-0.723107 69:-0.841727 70:-0.687109 71:-0.715981 72:-0.67247 73:-0.777354 74:-0.758471 75:-0.858062 
1778.92715740276 1:-0.98909 2:-0.991068 3:-0.991484 4:-0.987248 5:-0.986263 6:-0.990236 7:-0.988353 8:-0.984278 9:-0.985925 10:-0.992466 11:-0.988326 12:-0.98558 13:-0.98906 14:-0.993107 15:-0.987448 16:-0.925093 17:-0.923425 18:-0.927179 19:-0.91748 20:-0.924216 21:-0.925924 22:-0.920308 23:-0.922106 24:-0.926203 25:-0.920515 26:-0.922027 27:-0.924554 28:-0.932662 29:-0.914871 30:-0.93397 31:-0.910491 32:-0.925566 33:-0.942322 34:-0.918951 35:-0.916161 36:-0.929558 37:-0.918356 38:-0.918942 39:-0.93554 40:-0.939239 41:-0.906287 42:-0.925238 43:-0.92092 44:-0.940152 45:-0.968579 46:-0.942594 47:-0.920064 48:-0.929874 49:-0.950372 50:-0.935397 51:-0.948523 52:-0.945574 53:-0.891286 54:-0.912829 55:-0.962498 56:-0.950962 57:-0.983521 58:-0.978748 59:-0.930618 60:-0.942062 61:-0.983745 62:-0.942576 63:-0.9672 64:-0.950243 65:-0.914085 66:-0.911837 67:-0.982207 68:-0.964068 69:-0.989158 70:-0.985822 71:-0.98672 72:-0.964607 73:-0.981498 74:-0.958192 75:-0.986826 
-2636.800798561762 1:-0.918277 2:-0.919453 3:-0.919677 4:-0.970295 5:-0.936833 6:-0.918272 7:-0.988532 8:-0.973454 9:-0.939164 10:-0.99444 11:-0.98722 12:-0.975758 13:-0.990821 14:-0.993227 15:-0.986607 16:-0.755078 17:-0.753807 18:-0.757064 19:-0.752691 20:-0.754286 21:-0.757279 22:-0.75524 23:-0.752382 24:-0.756649 25:-0.755088 26:-0.753671 27:-0.755583 28:-0.779764 29:-0.752152 30:-0.765416 31:-0.750578 32:-0.769668 33:-0.793575 34:-0.776528 35:-0.755601 36:-0.763088 37:-0.765791 38:-0.763593 39:-0.792339 40:-0.853766 41:-0.789877 42:-0.789076 43:-0.806232 44:-0.828429 45:-0.890741 46:-0.866423 47:-0.80837 48:-0.827071 49:-0.868327 50:-0.836695 51:-0.873843 52:-0.920174 53:-0.845958 54:-0.858294 55:-0.927742 56:-0.911754 57:-0.966121 58:-0.960202 59:-0.884032 60:-0.911997 61:-0.971114 62:-0.91661 63:-0.944039 64:-0.946477 65:-0.899034 66:-0.90277 67:-0.987878 68:-0.941358 69:-0.98993 70:-0.981101 71:-0.971517 72:-0.958235 73:-0.987636 74:-0.954868 75:-0.980142 
1057.286797827652 1:-0.747561 2:-0.747787 3:-0.74751 4:-0.927372 5:-0.827802 6:-0.766032 7:-0.985948 8:-0.950641 9:-0.835599 10:-0.998084 11:-0.98599 12:-0.957286 13:-0.995918 14:-0.996771 15:-0.985789 16:-0.59904 17:-0.599581 18:-0.600162 19:-0.543117 20:-0.60068 21:-0.600197 22:-0.552487 23:-0.597673 24:-0.597399 25:-0.547394 26:-0.601067 27:-0.599629 28:-0.614449 29:-0.584175 30:-0.587558 31:-0.579643 32:-0.600585 33:-0.634166 34:-0.621469 35:-0.589324 36:-0.584407 37:-0.599755 38:-0.601751 39:-0.635191 40:-0.759438 41:-0.653032 42:-0.639685 43:-0.667999 44:-0.712004 45:-0.803265 46:-0.776499 47:-0.691223 48:-0.688686 49:-0.772199 50:-0.733228 51:-0.79101 52:-0.894345 53:-0.778995 54:-0.797437 55:-0.885205 56:-0.855685 57:-0.94407 58:-0.935936 59:-0.825306 60:-0.869087 61:-0.952361 62:-0.875764 63:-0.924995 64:-0.937273 65:-0.89876 66:-0.90306 67:-0.982926 68:-0.935763 69:-0.983007 70:-0.984115 71:-0.963997 72:-0.952505 73:-1 74:-0.954752 75:-0.983812 
-418.7963911180215 1:-0.437042 2:-0.444646 3:-0.439446 4:-0.853215 5:-0.650621 6:-0.50587 7:-0.976568 8:-0.911982 9:-0.660569 10:-0.999455 11:-0.982276 12:-0.923586 13:-1 14:-1 15:-0.984226 16:-0.455922 17:-0.462005 18:-0.448754 19:-0.291608 20:-0.460658 21:-0.45997 22:-0.295151 23:-0.458265 24:-0.456616 25:-0.294425 26:-0.460649 27:-0.459901 28:-0.441152 29:-0.398418 30:-0.391651 31:-0.389991 32:-0.427585 33:-0.460396 34:-0.455262 35:-0.407997 36:-0.400858 37:-0.409228 38:-0.438931 39:-0.46802 40:-0.646567 41:-0.493002 42:-0.48553 43:-0.501044 44:-0.590508 45:-0.699884 46:-0.674785 47:-0.573981 48:-0.544143 49:-0.662788 50:-0.626124 51:-0.701139 52:-0.857218 53:-0.718802 54:-0.716344 55:-0.805759 56:-0.793855 57:-0.910121 58:-0.906902 59:-0.792124 60:-0.829666 61:-0.910824 62:-0.835891 63:-0.901264 64:-0.938159 65:-0.895267 66:-0.864384 67:-0.939104 68:-0.928827 69:-0.980626 70:-0.978229 71:-0.956386 72:-0.950973 73:-0.992103 74:-0.96 75:-0.97735 
3000 1:-0.999392 2:-0.999974 3:-0.999987 4:-0.993368 5:-0.998955 6:-0.999883 7:-0.9903 8:-0.991732 9:-0.99721 10:-0.993447 11:-0.990721 12:-0.990808 13:-0.990064 14:-0.994281 15:-0.988695 16:-0.998267 17:-0.996803 18:-0.999097 19:-0.997035 20:-0.998158 21:-0.998662 22:-0.998231 23:-0.99647 24:-0.998748 25:-0.998656 26:-0.996101 27:-0.997117 28:-0.988393 29:-0.985071 30:-0.991535 31:-0.992044 32:-0.992235 33:-0.995535 34:-0.992025 35:-0.986052 36:-0.989844 37:-0.993968 38:-0.985087 39:-0.98775 40:-0.968806 41:-0.952613 42:-0.965499 43:-0.986782 44:-0.979062 45:-0.990367 46:-0.986795 47:-0.96667 48:-0.966707 49:-0.992093 50:-0.972699 51:-0.972645 52:-0.956961 53:-0.913686 54:-0.931376 55:-0.992586 56:-0.964456 57:-0.989262 58:-0.995706 59:-0.95336 60:-0.954858 61:-0.997742 62:-0.958989 63:-0.974812 64:-0.95715 65:-0.914731 66:-0.915095 67:-0.997624 68:-0.959179 69:-0.994264 70:-0.990694 71:-0.988396 72:-0.967391 73:-0.990275 74:-0.95372 75:-0.995339 
3000 1:-0.999973 2:-0.999973 3:-0.999986 4:-0.999348 5:-0.999976 6:-0.999875 7:-0.99759 8:-0.999518 9:-0.999587 10:-0.997609 11:-0.997092 12:-0.997338 13:-0.991552 14:-0.996676 15:-0.992238 16:-0.999357 17:-0.99722 18:-0.999795 19:-0.998066 20:-0.99847 21:-0.999288 22:-0.999763 23:-0.996939 24:-0.999547 25:-0.999778 26:-0.996034 27:-0.998195 28:-0.994284 29:-0.987303 30:-0.995787 31:-0.996971 32:-0.993405 33:-0.998926 34:-0.998757 35:-0.98798 36:-0.995762 37:-0.99862 38:-0.98474 39:-0.992301 40:-0.980315 41:-0.962481 42:-0.975695 43:-0.997011 44:-0.982786 45:-0.996448 46:-0.997206 47:-0.973585 48:-0.979327 49:-0.999586 50:-0.973749 51:-0.979318 52:-0.967117 53:-0.924156 54:-0.937301 55:-0.9993 56:-0.970422 57:-0.992668 58:-0.999686 59:-0.958896 60:-0.964838 61:-1 62:-0.962258 63:-0.977798 64:-0.96067 65:-0.918331 66:-0.919108 67:-1 68:-0.960267 69:-0.996777 70:-0.994659 71:-0.979089 72:-0.978562 73:-0.989997 74:-0.954652 75:-0.99222 
-3000 1:-1 2:-0.999971 3:-0.999986 4:-1 5:-0.999978 6:-0.999868 7:-1 8:-1 9:-0.999591 10:-1 11:-1 12:-0.998851 13:-0.99241 14:-0.998645 15:-0.994159 16:-0.99963 17:-0.997458 18:-0.999871 19:-0.998311 20:-0.99858 21:-0.999445 22:-1 23:-0.997187 24:-0.999686 25:-1 26:-0.995957 27:-0.998443 28:-0.996423 29:-0.988095 30:-0.996682 31:-0.998099 32:-0.993648 33:-1 34:-1 35:-0.988351 36:-0.997514 37:-1 38:-0.983483 39:-0.993508 40:-0.98627 41:-0.964509 42:-0.980209 43:-1 44:-0.983753 45:-0.998658 46:-1 47:-0.974779 48:-0.986865 49:-1 50:-0.971912 51:-0.981252 52:-0.972394 53:-0.930827 54:-0.943401 55:-1 56:-0.970781 57:-0.99539 58:-1 59:-0.96175 60:-0.973955 61:-0.997487 62:-0.96093 63:-0.978776 64:-0.962153 65:-0.920256 66:-0.927074 67:-0.990276 68:-0.958691 69:-0.999657 70:-0.994315 71:-0.979204 72:-0.977897 73:-0.988652 74:-0.948298 75:-0.995655 
-3000 1:-0.997597 2:-0.999563 3:-0.999955 4:-0.990165 5:-0.994842 6:-0.999361 7:-0.988851 8:-0.987722 9:-0.993844 10:-0.992614 11:-0.989061 12:-0.988296 13:-0.989188 14:-0.992913 15:-0.987256 16:-0.99685 17:-0.9959 18:-0.998777 19:-0.995881 20:-0.997134 21:-0.997446 22:-0.996609 23:-0.995688 24:-0.998171 25:-0.997674 26:-0.99484 27:-0.996543 28:-0.98509 29:-0.980804 30:-0.990618 31:-0.987665 32:-0.988184 33:-0.991461 34:-0.98847 35:-0.981643 36:-0.989528 37:-0.990734 38:-0.979591 39:-0.985677 40:-0.965694 41:-0.944563 42:-0.962154 43:-0.977194 44:-0.972112 45:-0.98524 46:-0.985154 47:-0.956058 48:-0.966995 49:-0.985937 50:-0.96365 51:-0.971071 52:-0.951095 53:-0.908557 54:-0.922123 55:-0.978671 56:-0.960544 57:-0.984562 58:-0.993307 59:-0.943169 60:-0.949806 61:-0.990987 62:-0.954775 63:-0.973797 64:-0.948779 65:-0.916698 66:-0.904943 67:-0.987296 68:-0.954604 69:-0.991773 70:-0.9881 71:-0.975667 72:-0.967448 73:-0.986023 74:-0.953307 75:-0.992246 
3000 1:-0.998564 2:-0.999819 3:-0.999979 4:-0.992221 5:-0.996516 6:-0.999562 7:-0.990375 8:-0.98984 9:-0.995377 10:-0.993286 11:-0.989936 12:-0.989652 13:-0.989365 14:-0.993175 15:-0.986804 16:-0.997476 17:-0.996157 18:-0.99909 19:-0.996195 20:-0.997289 21:-0.997755 22:-0.996637 23:-0.996153 24:-0.998425 25:-0.997952 26:-0.995075 27:-0.99656 28:-0.986218 29:-0.981969 30:-0.991811 31:-0.98839 32:-0.988459 33:-0.991636 34:-0.988619 35:-0.983319 36:-0.990392 37:-0.991723 38:-0.979384 39:-0.986428 40:-0.965165 41:-0.948019 42:-0.96316 43:-0.977343 44:-0.971353 45:-0.983462 46:-0.985312 47:-0.959732 48:-0.967974 49:-0.986348 50:-0.961174 51:-0.971934 52:-0.95091 53:-0.909635 54:-0.918497 55:-0.982797 56:-0.956305 57:-0.984489 58:-0.991802 59:-0.944986 60:-0.948116 61:-0.993018 62:-0.953591 63:-0.971837 64:-0.954079 65:-0.904756 66:-0.913163 67:-0.982359 68:-0.95477 69:-0.987933 70:-0.990043 71:-0.976713 72:-0.963578 73:-0.98899 74:-0.946103 75:-0.990181 
3000 1:-0.996776 2:-0.999623 3:-0.99998 4:-0.985924 5:-0.992591 6:-0.998815 7:-0.985915 8:-0.985214 9:-0.992455 10:-0.991054 11:-0.988005 12:-0.987757 13:-0.988413 14:-0.993058 15:-0.987872 16:-0.997352 17:-0.997384 18:-0.998204 19:-0.992892 20:-0.998455 21:-0.997753 22:-0.993 23:-0.996925 24:-0.997968 25:-0.993896 26:-0.997281 27:-0.996439 28:-0.985142 29:-0.985137 30:-0.989294 31:-0.982738 32:-0.991518 33:-0.993275 34:-0.982971 35:-0.984064 36:-0.989709 37:-0.983164 38:-0.986618 39:-0.985556 40:-0.965874 41:-0.951962 42:-0.962411 43:-0.982131 44:-0.976409 45:-0.9884 46:-0.981431 47:-0.961311 48:-0.96977 49:-0.985624 50:-0.971499 51:-0.968896 52:-0.960501 53:-0.915475 54:-0.933917 55:-0.99231 56:-0.964778 57:-0.989284 58:-0.993255 59:-0.948522 60:-0.964344 61:-0.995023 62:-0.953528 63:-0.975299 64:-0.957447 65:-0.920333 66:-0.924677 67:-0.994697 68:-0.960701 69:-0.99253 70:-0.993101 71:-0.983096 72:-0.972523 73:-0.990406 74:-0.949055 75:-0.994041 
-3000 1:-0.995363 2:-0.999772 3:-0.999995 4:-0.983931 5:-0.993066 6:-0.999049 7:-0.984692 8:-0.98497 9:-0.99219 10:-0.991309 11:-0.987579 12:-0.987274 13:-0.990101 14:-0.993346 15:-0.988295 16:-0.998589 17:-0.998397 18:-0.999106 19:-0.992737 20:-0.999121 21:-0.998892 22:-0.992529 23:-0.998089 24:-0.998825 25:-0.993495 26:-0.998287 27:-0.99834 28:-0.985582 29:-0.989505 30:-0.989697 31:-0.982299 32:-0.994464 33:-0.993883 34:-0.980919 35:-0.988858 36:-0.990122 37:-0.982575 38:-0.990128 39:-0.986439 40:-0.965149 41:-0.956035 42:-0.964901 43:-0.978555 44:-0.978214 45:-0.989098 46:-0.979459 47:-0.965114 48:-0.971709 49:-0.985562 50:-0.973405 51:-0.972257 52:-0.960787 53:-0.908116 54:-0.9464 55:-0.986894 56:-0.960676 57:-0.993972 58:-0.994084 59:-0.944274 60:-0.967559 61:-0.999799 62:-0.956155 63:-0.976703 64:-0.960894 65:-0.912246 66:-0.940269 67:-0.984898 68:-0.96057 69:-0.991012 70:-1 71:-0.983973 72:-0.96879 73:-0.987144 74:-0.966194 75:-0.989861 
-920.1681200768015 1:-0.993643 2:-0.999787 3:-0.999998 4:-0.979856 5:-0.991589 6:-0.999 7:-0.980043 8:-0.981909 9:-0.99063 10:-0.985643 11:-0.982839 12:-0.980091 13:-0.982438 14:-0.989692 15:-0.98468 16:-0.999096 17:-0.998732 18:-0.99942 19:-0.992297 20:-0.999393 21:-0.999321 22:-0.992899 23:-0.998501 24:-0.999026 25:-0.993028 26:-0.998637 27:-0.998938 28:-0.985829 29:-0.990813 30:-0.989751 31:-0.980968 32:-0.995397 33:-0.994378 34:-0.982506 35:-0.991036 36:-0.988389 37:-0.98061 38:-0.992066 39:-0.9873 40:-0.961913 41:-0.955205 42:-0.959338 43:-0.979984 44:-0.976938 45:-0.988925 46:-0.984953 47:-0.963736 48:-0.96613 49:-0.985051 50:-0.97714 51:-0.968457 52:-0.957069 53:-0.895192 54:-0.937406 55:-0.985874 56:-0.954838 57:-0.996248 58:-0.996659 59:-0.93229 60:-0.961913 61:-0.998994 62:-0.95489 63:-0.978872 64:-0.942403 65:-0.912086 66:-0.922148 67:-0.977957 68:-0.954903 69:-0.990966 70:-0.995193 71:-0.977379 72:-0.965394 73:-0.986679 74:-0.965297 75:-0.995129 
-3000 1:-0.990167 2:-0.99974 3:-0.999999 4:-0.972674 5:-0.990083 6:-0.9993 7:-0.971503 8:-0.978623 9:-0.990818 10:-0.97648 11:-0.975833 12:-0.975639 13:-0.972622 14:-0.980781 15:-0.976315 16:-0.999698 17:-0.999119 18:-0.999638 19:-0.993099 20:-0.9997 21:-0.999882 22:-0.992558 23:-0.998942 24:-0.999471 25:-0.991112 26:-0.998751 27:-0.999705 28:-0.98823 29:-0.992877 30:-0.991017 31:-0.98122 32:-0.996793 33:-0.996277 34:-0.979146 35:-0.992784 36:-0.989279 37:-0.970611 38:-0.990753 39:-0.988538 40:-0.970322 41:-0.95919 42:-0.970357 43:-0.972064 44:-0.978599 45:-0.994592 46:-0.973867 47:-0.966506 48:-0.971564 49:-0.960696 50:-0.964382 51:-0.971097 52:-0.963914 53:-0.899688 54:-0.957269 55:-0.977567 56:-0.960554 57:-0.99702 58:-0.986342 59:-0.933864 60:-0.967347 61:-0.964806 62:-0.925384 63:-0.975638 64:-0.945996 65:-0.919846 66:-0.936156 67:-0.957726 68:-0.963427 69:-0.995752 70:-0.97694 71:-0.982517 72:-0.954232 73:-0.958603 74:-0.92363 75:-0.984453 
3000 1:-0.999554 2:-0.999968 3:-0.999987 4:-0.996013 5:-0.999766 6:-0.999876 7:-0.992546 8:-0.995809 9:-0.998861 10:-0.994614 11:-0.992356 12:-0.992628 13:-0.990355 14:-0.994803 15:-0.989946 16:-0.998855 17:-0.997142 18:-0.999273 19:-0.996629 20:-0.998059 21:-0.999079 22:-0.998112 23:-0.996962 24:-0.998973 25:-0.997786 26:-0.996255 27:-0.998299 28:-0.990803 29:-0.987055 30:-0.992516 31:-0.990874 32:-0.99131 33:-0.997485 34:-0.992079 35:-0.987068 36:-0.992371 37:-0.990262 38:-0.985438 39:-0.992683 40:-0.970639 41:-0.958066 42:-0.966735 43:-0.984276 44:-0.974201 45:-0.993768 46:-0.987213 47:-0.964382 48:-0.974313 49:-0.986846 50:-0.969455 51:-0.981488 52:-0.958112 53:-0.923739 54:-0.930555 55:-0.991798 56:-0.958526 57:-0.993496 58:-0.997611 59:-0.945393 60:-0.962983 61:-0.996168 62:-0.951888 63:-0.981216 64:-0.95414 65:-0.921015 66:-0.921692 67:-0.991974 68:-0.960879 69:-0.991358 70:-0.998872 71:-0.981241 72:-0.975674 73:-0.985003 74:-0.957505 75:-0.995335 
-3000 1:-0.999933 2:-0.999974 3:-0.999985 4:-0.999063 5:-0.999909 6:-0.999879 7:-0.997317 8:-0.999302 9:-0.999571 10:-0.997786 11:-0.996785 12:-0.99654 13:-0.992228 14:-0.997387 15:-0.992135 16:-0.9994 17:-0.997468 18:-0.999668 19:-0.996802 20:-0.998281 21:-0.99945 22:-0.998475 23:-0.997628 24:-0.999314 25:-0.997743 26:-0.996463 27:-0.998904 28:-0.994102 29:-0.988428 30:-0.994939 31:-0.992252 32:-0.992319 33:-0.99955 34:-0.993653 35:-0.990607 36:-0.994304 37:-0.99151 38:-0.985471 39:-0.995216 40:-0.979346 41:-0.966416 42:-0.97321 43:-0.985333 44:-0.978298 45:-0.998554 46:-0.985873 47:-0.980952 48:-0.976555 49:-0.98488 50:-0.974186 51:-0.986169 52:-0.961493 53:-0.928763 54:-0.933568 55:-0.989738 56:-0.957166 57:-1 58:-0.988625 59:-0.961602 60:-0.963353 61:-0.991433 62:-0.953846 63:-0.988497 64:-0.951177 65:-0.926068 66:-0.921408 67:-0.990442 68:-0.957191 69:-1 70:-0.985207 71:-0.988008 72:-0.975351 73:-0.985674 74:-0.951923 75:-1 
802.9218647123439 1:-0.806279 2:-0.805562 3:-0.85649 4:-0.931148 5:-0.91472 6:-0.914644 7:-0.952808 8:-0.950376 9:-0.893039 10:-0.958587 11:-0.975008 12:-0.951913 13:-0.944698 14:-0.986213 15:-0.979546 16:-0.912944 17:-0.941213 18:-0.912432 19:-0.906294 20:-0.941408 21:-0.91014 22:-0.90635 23:-0.940631 24:-0.91062 25:-0.908041 26:-0.940521 27:-0.907737 28:-0.910565 29:-0.911875 30:-0.907733 31:-0.90909 32:-0.922785 33:-0.918585 34:-0.910766 35:-0.909714 36:-0.90178 37:-0.906383 38:-0.91978 39:-0.912306 40:-0.895105 41:-0.868177 42:-0.864629 43:-0.878973 44:-0.903134 45:-0.922342 46:-0.909623 47:-0.8755 48:-0.859551 49:-0.906158 50:-0.906803 51:-0.906914 52:-0.906089 53:-0.845556 54:-0.843443 55:-0.908815 56:-0.910627 57:-0.944494 58:-0.931069 59:-0.883713 60:-0.863871 61:-0.932631 62:-0.915727 63:-0.926164 64:-0.920193 65:-0.891996 66:-0.844012 67:-0.929083 68:-0.934797 69:-0.954551 70:-0.910127 71:-0.945123 72:-0.88469 73:-0.955145 74:-0.932155 75:-0.93481 
201.9027963873006 1:-0.565323 2:-0.60951 3:-0.750483 4:-0.746916 5:-0.543958 6:-0.503316 7:-0.894333 8:-0.850886 9:-0.595544 10:-0.928905 11:-0.957589 12:-0.903669 13:-0.900141 14:-0.979972 15:-0.974681 16:-0.802609 17:-0.85654 18:-0.799141 19:-0.796937 20:-0.857513 21:-0.800945 22:-0.79981 23:-0.856623 24:-0.797419 25:-0.799716 26:-0.854432 27:-0.798195 28:-0.691043 29:-0.751909 30:-0.720464 31:-0.713779 32:-0.78096 33:-0.697903 34:-0.712574 35:-0.751671 36:-0.712507 37:-0.71342 38:-0.774637 39:-0.701372 40:-0.739873 41:-0.722729 42:-0.701361 43:-0.718541 44:-0.766714 45:-0.78164 46:-0.775587 47:-0.737189 48:-0.718013 49:-0.788914 50:-0.78009 51:-0.758857 52:-0.841845 53:-0.786716 54:-0.724347 55:-0.788157 56:-0.847678 57:-0.904977 58:-0.89668 59:-0.80918 60:-0.760572 61:-0.877266 62:-0.866249 63:-0.870101 64:-0.862331 65:-0.881169 66:-0.745317 67:-0.813407 68:-0.907508 69:-0.935786 70:-0.896714 71:-0.920333 72:-0.78541 73:-0.923517 74:-0.919849 75:-0.889342 
20.13274942950849 1:-0.391984 2:-0.478198 3:-0.672675 4:-0.561341 5:-0.36282 6:-0.238169 7:-0.849031 8:-0.803063 9:-0.47123 10:-0.880557 11:-0.936256 12:-0.869512 13:-0.844356 14:-0.949934 15:-0.933721 16:-0.710972 17:-0.790435 18:-0.709976 19:-0.709778 20:-0.791841 21:-0.710364 22:-0.711304 23:-0.790964 24:-0.710124 25:-0.713696 26:-0.788726 27:-0.708411 28:-0.53781 29:-0.631921 30:-0.57524 31:-0.549267 32:-0.698705 33:-0.520302 34:-0.567424 35:-0.630764 36:-0.585314 37:-0.55092 38:-0.695131 39:-0.530576 40:-0.628181 41:-0.625355 42:-0.530603 43:-0.53089 44:-0.667322 45:-0.684951 46:-0.67318 47:-0.643165 48:-0.587703 49:-0.68001 50:-0.685444 51:-0.65536 52:-0.752403 53:-0.713284 54:-0.513111 55:-0.611868 56:-0.757116 57:-0.835566 58:-0.825746 59:-0.749782 60:-0.66205 61:-0.789911 62:-0.800191 63:-0.782879 64:-0.762594 65:-0.814797 66:-0.553571 67:-0.639596 68:-0.808613 69:-0.875742 70:-0.837734 71:-0.88539 72:-0.720127 73:-0.857921 74:-0.864605 75:-0.826031 
25.0254936199371 1:-0.211677 2:-0.330166 3:-0.580676 4:-0.456184 5:-0.167691 6:-0.048519 7:-0.809151 8:-0.729062 9:-0.177382 10:-0.850067 11:-0.919153 12:-0.822207 13:-0.816949 14:-0.938608 15:-0.917312 16:-0.609186 17:-0.724696 18:-0.613715 19:-0.618963 20:-0.725235 21:-0.608407 22:-0.610626 23:-0.722833 24:-0.613518 25:-0.6214 26:-0.722371 27:-0.605472 28:-0.394311 29:-0.519401 30:-0.438701 31:-0.423615 32:-0.586161 33:-0.378025 34:-0.423834 35:-0.510924 36:-0.441902 37:-0.414988 38:-0.588378 39:-0.395022 40:-0.513087 41:-0.49636 42:-0.377572 43:-0.39215 44:-0.552649 45:-0.572101 46:-0.556625 47:-0.509181 48:-0.412235 49:-0.560516 50:-0.580746 51:-0.559099 52:-0.697696 53:-0.612041 54:-0.413678 55:-0.529689 56:-0.675956 57:-0.788222 58:-0.750442 59:-0.646479 60:-0.543671 61:-0.694719 62:-0.738332 63:-0.749777 64:-0.713248 65:-0.782061 66:-0.528629 67:-0.609299 68:-0.757087 69:-0.836234 70:-0.761533 71:-0.834143 72:-0.619236 73:-0.800817 74:-0.841482 75:-0.812558 
24.26352434464351 1:-0.747181 2:-0.898046 3:-0.958932 4:-0.262056 5:-0.497142 6:-0.892534 7:-0.10131 8:-0.109679 9:-0.582485 10:0.193986 11:0.0720975 12:-0.24743 13:0.588235 14:0.543763 15:-0.269075 16:-0.82883 17:-0.812926 18:-0.819705 19:-0.768725 20:-0.802929 21:-0.827079 22:-0.779656 23:-0.807652 24:-0.819037 25:-0.769574 26:-0.797445 27:-0.826955 28:-0.826013 29:-0.752363 30:-0.74589 31:-0.634204 32:-0.724618 33:-0.824249 34:-0.715767 35:-0.751484 36:-0.756031 37:-0.613806 38:-0.708402 39:-0.820471 40:-0.847698 41:-0.61832 42:-0.491727 43:-0.339268 44:-0.55892 45:-0.84296 46:-0.668041 47:-0.655268 48:-0.630624 49:-0.413453 50:-0.548616 51:-0.811414 52:-0.869657 53:-0.355498 54:-0.119502 55:-0.090711 56:-0.298628 57:-0.871303 58:-0.701511 59:-0.500581 60:-0.551131 61:-0.226605 62:-0.357051 63:-0.81762 64:-0.846221 65:-0.153891 66:-0.00848886 67:0.0978509 68:0.0701248 69:-0.858452 70:-0.647304 71:-0.417345 72:-0.593301 73:-0.219032 74:-0.279143 75:-0.788906 
2.777625576317232 1:-0.633787 2:-0.758474 3:-0.80028 4:-0.313008 5:-0.426891 6:-0.752331 7:-0.163708 8:-0.125446 9:-0.501413 10:0.13439 11:0.0334433 12:-0.245859 13:0.52562 14:0.48404 15:-0.29226 16:-0.495542 17:-0.49075 18:-0.484437 19:-0.349305 20:-0.483157 21:-0.495473 22:-0.359527 23:-0.483838 24:-0.487167 25:-0.352733 26:-0.477095 27:-0.495217 28:-0.492939 29:-0.400922 30:-0.390477 31:-0.286342 32:-0.377527 33:-0.497135 34:-0.415705 35:-0.399876 36:-0.404579 37:-0.283176 38:-0.373381 39:-0.498734 40:-0.66312 41:-0.341558 42:-0.221079 43:-0.0784826 44:-0.324862 45:-0.678044 46:-0.509507 47:-0.408587 48:-0.384671 49:-0.263583 50:-0.339385 51:-0.642394 52:-0.820153 53:-0.261712 54:-0.0289182 55:0.00294344 56:-0.242327 57:-0.824793 58:-0.669297 59:-0.408681 60:-0.470634 61:-0.253584 62:-0.300394 63:-0.772065 64:-0.856281 65:-0.160934 66:-0.00830401 67:0.103089 68:0.0432058 69:-0.850206 70:-0.6604 71:-0.407581 72:-0.584771 73:-0.288111 74:-0.278665 75:-0.783232 
229.6834384597019 1:-0.964735 2:-0.99982 3:-0.999976 4:-0.626583 5:-0.94951 6:-0.999078 7:-0.264697 8:-0.526991 9:-0.90706 10:0.119261 11:-0.0838657 12:-0.474269 13:0.546866 14:0.469714 15:-0.337673 16:-0.995516 17:-0.985841 18:-0.979267 19:-0.969136 20:-0.982569 21:-0.990912 22:-0.983505 23:-0.984364 24:-0.985925 25:-0.958794 26:-0.97806 27:-0.989958 28:-0.971512 29:-0.926748 30:-0.883323 31:-0.8346 32:-0.910758 33:-0.957008 34:-0.917442 35:-0.922205 36:-0.921994 37:-0.776468 38:-0.893111 39:-0.950291 40:-0.926653 41:-0.745378 42:-0.581354 43:-0.469549 44:-0.710702 45:-0.90583 46:-0.793245 47:-0.774351 48:-0.758229 49:-0.458348 50:-0.685936 51:-0.872639 52:-0.889643 53:-0.418645 54:-0.178601 55:-0.137378 56:-0.358228 57:-0.887356 58:-0.735664 59:-0.560694 60:-0.6244 61:-0.207513 62:-0.414604 63:-0.835195 64:-0.853527 65:-0.159775 66:-0.0516866 67:0.0889315 68:0.0603158 69:-0.866078 70:-0.650687 71:-0.430655 72:-0.628889 73:-0.195687 74:-0.300076 75:-0.793453 
-103.3687931362425 1:-0.99034 2:-0.999937 3:-0.999976 4:-0.835071 5:-0.996585 6:-0.999743 7:-0.476507 8:-0.841826 9:-0.98936 10:0.000599092 11:-0.320192 12:-0.731592 13:0.497296 14:0.364048 15:-0.435089 16:-0.99741 17:-0.98708 18:-0.980575 19:-0.97169 20:-0.984144 21:-0.992172 22:-0.986444 23:-0.985132 24:-0.987718 25:-0.961219 26:-0.979654 27:-0.990113 28:-0.980423 29:-0.932933 30:-0.888654 31:-0.848255 32:-0.917706 33:-0.963592 34:-0.930605 35:-0.926584 36:-0.929515 37:-0.789531 38:-0.900227 39:-0.950455 40:-0.938701 41:-0.772476 42:-0.587362 43:-0.475501 44:-0.748818 45:-0.913044 46:-0.820208 47:-0.786979 48:-0.768754 49:-0.463307 50:-0.72971 51:-0.871044 52:-0.898577 53:-0.458395 54:-0.165983 55:-0.128575 56:-0.422422 57:-0.891352 58:-0.749261 59:-0.570394 60:-0.63436 61:-0.218761 62:-0.453599 63:-0.827469 64:-0.859057 65:-0.160362 66:-0.082246 67:0.113378 68:0.0103728 69:-0.856326 70:-0.656546 71:-0.448619 72:-0.622687 73:-0.187109 74:-0.33568 75:-0.784197 
178.2569964621207 1:-0.996258 2:-0.999929 3:-0.999974 4:-0.921328 5:-0.999211 6:-0.999712 7:-0.654126 8:-0.957685 9:-0.997057 10:-0.140837 11:-0.568261 12:-0.899812 13:0.441419 14:0.222745 15:-0.563813 16:-0.998361 17:-0.987253 18:-0.981719 19:-0.972858 20:-0.984436 21:-0.992856 22:-0.987697 23:-0.985115 24:-0.988924 25:-0.962594 26:-0.980044 27:-0.990304 28:-0.986257 29:-0.933711 30:-0.893608 31:-0.855495 32:-0.918878 33:-0.967056 34:-0.937259 35:-0.926354 36:-0.935251 37:-0.797039 38:-0.902274 39:-0.950956 40:-0.948936 41:-0.781238 42:-0.595203 43:-0.49225 44:-0.758996 45:-0.917623 46:-0.835492 47:-0.788328 48:-0.78338 49:-0.472871 50:-0.743839 51:-0.86809 52:-0.902541 53:-0.495407 54:-0.163291 55:-0.0819399 56:-0.476786 57:-0.892195 58:-0.759005 59:-0.583773 60:-0.645046 61:-0.207569 62:-0.494245 63:-0.821536 64:-0.863339 65:-0.173215 66:-0.0656737 67:0.139884 68:-0.0188265 69:-0.854954 70:-0.662432 71:-0.470241 72:-0.599923 73:-0.194095 74:-0.340983 75:-0.774869 
-1560.613513344694 1:-0.827333 2:-0.957832 3:-0.990325 4:-0.353076 5:-0.605405 6:-0.941413 7:-0.145482 8:-0.152466 9:-0.637492 10:0.169813 11:0.0559208 12:-0.281275 13:0.583784 14:0.542066 15:-0.276283 16:-0.98644 17:-0.97467 18:-0.97273 19:-0.959198 20:-0.966655 21:-0.983384 22:-0.972506 23:-0.971328 24:-0.975525 25:-0.953652 26:-0.962482 27:-0.98271 28:-0.948911 29:-0.89252 30:-0.86411 31:-0.815847 32:-0.862158 33:-0.934268 34:-0.888392 35:-0.890102 36:-0.891276 37:-0.768979 38:-0.843286 39:-0.92745 40:-0.896534 41:-0.684426 42:-0.545992 43:-0.454012 44:-0.618182 45:-0.875849 46:-0.761162 47:-0.719121 48:-0.697747 49:-0.471477 50:-0.605821 51:-0.837806 52:-0.862358 53:-0.359806 54:-0.132253 55:-0.0761532 56:-0.292229 57:-0.859702 58:-0.718857 59:-0.513832 60:-0.55219 61:-0.209273 62:-0.36309 63:-0.802624 64:-0.831271 65:-0.160133 66:-0.0057799 67:0.195166 68:0.0690654 69:-0.836546 70:-0.636333 71:-0.399447 72:-0.575928 73:-0.19693 74:-0.266871 75:-0.767352 
806.9685846783497 1:-0.865354 2:-0.977405 3:-0.997611 4:-0.412931 5:-0.671557 6:-0.959922 7:-0.17592 8:-0.208159 9:-0.680703 10:0.153318 11:0.0456461 12:-0.294063 13:0.57067 14:0.532289 15:-0.281998 16:-0.986715 17:-0.97815 18:-0.969738 19:-0.9559 20:-0.972525 21:-0.982381 22:-0.972466 23:-0.976085 24:-0.972582 25:-0.949478 26:-0.968248 27:-0.981634 28:-0.948216 29:-0.893026 30:-0.857534 31:-0.807569 32:-0.866556 33:-0.93371 34:-0.886152 35:-0.892596 36:-0.885618 37:-0.758833 38:-0.847447 39:-0.925156 40:-0.893953 41:-0.681487 42:-0.539436 43:-0.425261 44:-0.624467 45:-0.873232 46:-0.763671 47:-0.717552 48:-0.684534 49:-0.453922 50:-0.612599 51:-0.83733 52:-0.853942 53:-0.353308 54:-0.106871 55:-0.0601009 56:-0.307107 57:-0.845697 58:-0.721694 59:-0.519037 60:-0.518472 61:-0.198733 62:-0.364829 63:-0.801921 64:-0.829731 65:-0.143959 66:0.0056918 67:0.175856 68:0.0872635 69:-0.824092 70:-0.641126 71:-0.404805 72:-0.55061 73:-0.19618 74:-0.254896 75:-0.763219 
2699.726569421427 1:-0.811768 2:-0.951057 3:-0.990585 4:-0.263279 5:-0.53626 6:-0.919107 7:-0.087748 8:-0.133543 9:-0.620598 10:0.206537 11:0.0671597 12:-0.268066 13:0.60109 14:0.545493 15:-0.279558 16:-0.984986 17:-0.974786 18:-0.974105 19:-0.952922 20:-0.966667 21:-0.980798 22:-0.96428 23:-0.972969 24:-0.97564 25:-0.945935 26:-0.964102 27:-0.983137 28:-0.94674 29:-0.909457 30:-0.873856 31:-0.818838 32:-0.876734 33:-0.94002 34:-0.888515 35:-0.912049 36:-0.893682 37:-0.771771 38:-0.863849 39:-0.942583 40:-0.900442 41:-0.723176 42:-0.564998 43:-0.480676 44:-0.653242 45:-0.89249 46:-0.770878 47:-0.768007 48:-0.72489 49:-0.462922 50:-0.653419 51:-0.869993 52:-0.883494 53:-0.404412 54:-0.16937 55:-0.113967 56:-0.34034 57:-0.883917 58:-0.725662 59:-0.551647 60:-0.61573 61:-0.193382 62:-0.412234 63:-0.838418 64:-0.840677 65:-0.165845 66:-0.0332474 67:0.153331 68:0.0385838 69:-0.868104 70:-0.635363 71:-0.428963 72:-0.618283 73:-0.194306 74:-0.290283 75:-0.791059 
-3000 1:-0.838874 2:-0.969056 3:-0.997074 4:-0.282372 5:-0.561983 6:-0.924293 7:-0.090439 8:-0.14143 9:-0.626603 10:0.208541 11:0.0640062 12:-0.264024 13:0.602221 14:0.545256 15:-0.277962 16:-0.988169 17:-0.981235 18:-0.974173 19:-0.952676 20:-0.97388 21:-0.982812 22:-0.965251 23:-0.979879 24:-0.977792 25:-0.942633 26:-0.971972 27:-0.984921 28:-0.951525 29:-0.913923 30:-0.876343 31:-0.830943 32:-0.878878 33:-0.94314 34:-0.891361 35:-0.916812 36:-0.899154 37:-0.776212 38:-0.868232 39:-0.940362 40:-0.904251 41:-0.728007 42:-0.567489 43:-0.505827 44:-0.661489 45:-0.889899 46:-0.786828 47:-0.776771 48:-0.723348 49:-0.472877 50:-0.660508 51:-0.865061 52:-0.894653 53:-0.396147 54:-0.165647 55:-0.148757 56:-0.34362 57:-0.884065 58:-0.744829 59:-0.556691 60:-0.597996 61:-0.213875 62:-0.404387 63:-0.838198 64:-0.83994 65:-0.169666 66:-0.0241585 67:0.120978 68:0.0243963 69:-0.860063 70:-0.652677 71:-0.429548 72:-0.600255 73:-0.175811 74:-0.32454 75:-0.795441 
886.1758170070114 1:-0.845573 2:-0.972849 3:-0.997611 4:-0.293144 5:-0.57406 6:-0.921185 7:-0.0961175 8:-0.154503 9:-0.622909 10:0.198922 11:0.0564209 12:-0.250533 13:0.596167 14:0.522894 15:-0.269025 16:-0.989702 17:-0.982855 18:-0.97476 19:-0.951988 20:-0.976122 21:-0.984535 22:-0.965361 23:-0.981315 24:-0.978713 25:-0.941242 26:-0.974204 27:-0.985529 28:-0.954568 29:-0.916971 30:-0.876578 31:-0.835851 32:-0.879015 33:-0.944957 34:-0.894474 35:-0.914867 36:-0.900575 37:-0.775147 38:-0.872199 39:-0.939118 40:-0.905678 41:-0.734031 42:-0.575115 43:-0.509827 44:-0.656258 45:-0.892155 46:-0.793191 47:-0.767483 48:-0.722876 49:-0.479158 50:-0.658127 51:-0.862056 52:-0.897761 53:-0.393723 54:-0.197646 55:-0.145412 56:-0.334343 57:-0.878964 58:-0.750771 59:-0.548133 60:-0.598851 61:-0.219569 62:-0.392768 63:-0.839228 64:-0.864996 65:-0.172044 66:-0.0420826 67:0.088234 68:0.0584626 69:-0.852824 70:-0.659952 71:-0.444993 72:-0.593991 73:-0.182282 74:-0.309006 75:-0.788111 
-135.1853955020141 1:-0.993972 2:-0.999855 3:-0.999976 4:-0.911914 5:-0.996273 6:-0.999754 7:-0.624759 8:-0.952934 9:-0.995622 10:-0.104105 11:-0.592031 12:-0.905118 13:0.444539 14:0.157423 15:-0.583888 16:-0.994388 17:-0.989484 18:-0.990439 19:-0.960637 20:-0.986007 21:-0.990814 22:-0.979237 23:-0.988308 24:-0.991083 25:-0.95353 26:-0.98315 27:-0.988911 28:-0.965961 29:-0.947396 30:-0.929963 31:-0.802079 32:-0.931103 33:-0.950064 34:-0.900878 35:-0.944067 36:-0.941575 37:-0.759715 38:-0.919557 39:-0.940003 40:-0.911081 41:-0.819858 42:-0.675723 43:-0.378643 44:-0.778439 45:-0.874341 46:-0.769827 47:-0.832106 48:-0.781606 49:-0.41738 50:-0.775468 51:-0.850801 52:-0.909988 53:-0.449588 54:-0.289172 55:-0.0296611 56:-0.38787 57:-0.873688 58:-0.748543 59:-0.522592 60:-0.665553 61:-0.210129 62:-0.418278 63:-0.855399 64:-0.856218 65:-0.199748 66:-0.0787853 67:0.255483 68:-0.059263 69:-0.850925 70:-0.657239 71:-0.469903 72:-0.603956 73:-0.18615 74:-0.278795 75:-0.82096 
24.97149149525984 1:-0.590542 2:-0.799993 3:-0.865558 4:-0.187837 5:-0.382196 6:-0.759143 7:-0.164755 8:-0.158706 9:-0.390751 10:0.0247602 11:-0.0368158 12:-0.195479 13:0.29311 14:0.373084 15:-0.197038 16:-0.872387 17:-0.90057 18:-0.853445 19:-0.816464 20:-0.897174 21:-0.868447 22:-0.836306 23:-0.900653 24:-0.853518 25:-0.813271 26:-0.889488 27:-0.86908 28:-0.72379 29:-0.719839 30:-0.617031 31:-0.546292 32:-0.720278 33:-0.709101 34:-0.647127 35:-0.719545 36:-0.657738 37:-0.498606 38:-0.699959 39:-0.723208 40:-0.627248 41:-0.399808 42:-0.204649 43:-0.0778239 44:-0.45304 45:-0.625771 46:-0.483227 47:-0.477782 48:-0.411009 49:-0.207355 50:-0.425907 51:-0.621632 52:-0.667933 53:-0.115979 54:0.209561 55:0.284239 56:-0.266052 57:-0.679997 58:-0.536449 59:-0.294042 60:-0.306172 61:-0.0710324 62:-0.241865 63:-0.657579 64:-0.644389 65:0.126987 66:0.260157 67:0.435961 68:-0.0962583 69:-0.677944 70:-0.475671 71:-0.240574 72:-0.331597 73:-0.204931 74:-0.169165 75:-0.68192 
7.213174579142999 1:-0.408602 2:-0.677904 3:-0.764871 4:-0.0491533 5:-0.115866 6:-0.600119 7:-0.161532 8:-0.137313 9:-0.215503 10:-0.080576 11:-0.125245 12:-0.144642 13:0.168656 14:0.222703 15:-0.290624 16:-0.764233 17:-0.850448 18:-0.728927 19:-0.695318 20:-0.847449 21:-0.762125 22:-0.730454 23:-0.849525 24:-0.728109 25:-0.694555 26:-0.83911 27:-0.764515 28:-0.545678 29:-0.610406 30:-0.354966 31:-0.284697 32:-0.602574 33:-0.549846 34:-0.510031 35:-0.591018 36:-0.392359 37:-0.250691 38:-0.587762 39:-0.581501 40:-0.432111 41:-0.240276 42:0.122038 43:0.286749 44:-0.304391 45:-0.463432 46:-0.339843 47:-0.292949 48:-0.107641 49:0.00861469 50:-0.280116 51:-0.462379 52:-0.572583 53:-0.0899729 54:0.402852 55:0.57932 56:-0.168502 57:-0.627501 58:-0.48311 59:-0.21797 60:-0.108999 61:0.0233248 62:-0.166671 63:-0.577983 64:-0.607649 65:-0.0191126 66:0.341281 67:0.678973 68:-0.00247328 69:-0.694686 70:-0.48615 71:-0.282007 72:-0.227845 73:-0.136726 74:-0.180217 75:-0.648924 
-27.28671955826712 1:-0.358785 2:-0.649563 3:-0.735532 4:-0.0159708 5:-0.131343 6:-0.538285 7:-0.197283 8:-0.187387 9:-0.128023 10:-0.169664 11:-0.212812 12:-0.117193 13:0.0772271 14:0.0441387 15:-0.264002 16:-0.701888 17:-0.816243 18:-0.694698 19:-0.663127 20:-0.81455 21:-0.698974 22:-0.670327 23:-0.815078 24:-0.693804 25:-0.663084 26:-0.807044 27:-0.702772 28:-0.437277 29:-0.534673 30:-0.318143 31:-0.246588 32:-0.529116 33:-0.440553 34:-0.409496 35:-0.519839 36:-0.355786 37:-0.211282 38:-0.521232 39:-0.473834 40:-0.283157 41:-0.135869 42:0.249767 43:0.428537 44:-0.202 45:-0.339378 46:-0.24015 47:-0.200891 48:0.0252036 49:0.096732 50:-0.197408 51:-0.34609 52:-0.377161 53:0.0718515 54:0.681673 55:0.835465 56:-0.0558558 57:-0.506724 58:-0.394682 59:-0.106577 60:0.137176 61:0.128073 62:-0.0876777 63:-0.468824 64:-0.346395 65:0.192221 66:0.591144 67:0.981018 68:0.0291911 69:-0.569996 70:-0.398948 71:-0.238871 72:0.065181 73:-0.0592044 74:-0.153494 75:-0.599429 
-238.9827254145251 1:-0.938031 2:-0.969023 3:-0.976302 4:-0.852865 5:-0.924734 6:-0.969766 7:-0.824301 8:-0.884599 9:-0.952232 10:-0.774814 11:-0.888629 12:-0.931325 13:-0.771405 14:-0.854987 15:-0.937386 16:-0.801846 17:-0.807211 18:-0.816062 19:-0.787951 20:-0.808084 21:-0.799676 22:-0.766986 23:-0.785197 24:-0.777289 25:-0.748264 26:-0.784698 27:-0.793609 28:-0.814281 29:-0.828533 30:-0.834055 31:-0.756747 32:-0.837824 33:-0.814328 34:-0.673834 35:-0.740975 36:-0.650921 37:-0.532314 38:-0.742028 39:-0.76993 40:-0.845337 41:-0.884578 42:-0.769993 43:-0.64717 44:-0.894771 45:-0.861005 46:-0.600446 47:-0.701706 48:-0.246963 49:-0.0517425 50:-0.71325 51:-0.711275 52:-0.878013 53:-0.897816 54:-0.66004 55:-0.472794 56:-0.897632 57:-0.903662 58:-0.607625 59:-0.776439 60:0.199698 61:0.647476 62:-0.791454 63:-0.685416 64:-0.908809 65:-0.91458 66:-0.693709 67:-0.32169 68:-0.903045 69:-0.9366 70:-0.587694 71:-0.701517 72:0.339028 73:0.758459 74:-0.744171 75:-0.708511 
-2.950956864842099 1:-0.165888 2:-0.194979 3:-0.163532 4:-0.706699 5:-0.400251 6:-0.201653 7:-0.856098 8:-0.776011 9:-0.443942 10:-0.816867 11:-0.876963 12:-0.824206 13:-0.818596 14:-0.870223 15:-0.924958 16:0.239176 17:0.207196 18:0.239378 19:0.268496 20:0.203698 21:0.242968 22:0.285519 23:0.232848 24:0.261841 25:0.299637 26:0.229605 27:0.254963 28:0.153918 29:0.196978 30:0.188699 31:0.241502 32:0.149248 33:0.118705 34:0.19487 35:0.278887 36:0.369403 37:0.3868 38:0.222513 39:0.124669 40:-0.256842 41:-0.148648 42:-0.0040198 43:0.0538451 44:-0.239088 45:-0.323234 46:-0.13282 47:0.0635742 48:0.423785 49:0.211092 50:-0.0525242 51:-0.226736 52:-0.694804 53:-0.664642 54:-0.355958 55:-0.351822 56:-0.720868 57:-0.766275 58:-0.491687 59:-0.215066 60:0.359988 61:0.17461 62:-0.337493 63:-0.576277 64:-0.894351 65:-0.872562 66:-0.496218 67:-0.417147 68:-0.88087 69:-0.919175 70:-0.604334 71:-0.616207 72:0.661775 73:0.367757 74:-0.685732 75:-0.701866 
-6.558814281456371 1:0.8108 2:0.841928 3:0.84339 4:-0.443217 5:0.297032 6:0.805339 7:-0.841703 8:-0.624972 9:0.201942 10:-0.849312 11:-0.862685 12:-0.694286 13:-0.850922 14:-0.878039 15:-0.910801 16:0.833862 17:0.836447 18:0.823214 19:0.944647 20:0.838645 21:0.831652 22:0.961801 23:0.853139 24:0.851515 25:0.973668 26:0.854326 27:0.841051 28:0.735807 29:0.825806 30:0.845023 31:0.846901 32:0.777615 33:0.698189 34:0.744645 35:0.894191 36:0.981005 37:0.98882 38:0.825135 39:0.688382 40:0.10272 41:0.385827 42:0.537943 43:0.559135 44:0.178858 45:0.00455627 46:0.188316 47:0.516058 48:0.828053 49:0.534325 50:0.34951 51:0.0624451 52:-0.55647 53:-0.400637 54:-0.144893 55:-0.192609 56:-0.535851 57:-0.657221 58:-0.407224 59:-0.00208711 60:0.422503 61:0.17958 62:-0.179772 63:-0.497403 64:-0.866377 65:-0.831738 66:-0.505235 67:-0.398528 68:-0.861292 69:-0.910671 70:-0.606047 71:-0.458255 72:0.520335 73:0.193241 74:-0.549049 75:-0.712054 
-1852.739581907649 1:-0.946613 2:-0.988081 3:-0.997872 4:-0.842063 5:-0.939846 6:-0.991447 7:-0.817156 8:-0.88985 9:-0.968554 10:-0.770509 11:-0.889083 12:-0.934713 13:-0.767818 14:-0.855183 15:-0.938068 16:-0.986239 17:-0.988402 18:-0.992027 19:-0.982998 20:-0.990556 21:-0.985878 22:-0.964259 23:-0.980078 24:-0.976016 25:-0.900732 26:-0.979607 27:-0.980827 28:-0.946567 29:-0.967338 30:-0.969263 31:-0.89781 32:-0.973792 33:-0.94854 34:-0.848273 35:-0.935592 36:-0.864203 37:-0.500015 38:-0.929802 39:-0.902033 40:-0.893503 41:-0.932046 42:-0.913126 43:-0.632405 44:-0.94062 45:-0.907538 46:-0.67584 47:-0.872358 48:-0.493979 49:0.233777 50:-0.875386 51:-0.762323 52:-0.884856 53:-0.908919 54:-0.808892 55:-0.383744 56:-0.909034 57:-0.907667 58:-0.622176 59:-0.806591 60:-0.00332225 61:0.799659 62:-0.819844 63:-0.691628 64:-0.91334 65:-0.915156 66:-0.727859 67:-0.280864 68:-0.904974 69:-0.939856 70:-0.589 71:-0.704356 72:0.249341 73:0.833025 74:-0.749728 75:-0.712567 
3000 1:-0.955883 2:-0.991506 3:-0.998663 4:-0.857563 5:-0.947837 6:-0.992982 7:-0.82292 8:-0.894897 9:-0.970276 10:-0.773625 11:-0.889831 12:-0.935837 13:-0.769072 14:-0.854101 15:-0.937499 16:-0.985631 17:-0.988896 18:-0.990425 19:-0.979799 20:-0.990687 21:-0.984723 22:-0.963267 23:-0.980783 24:-0.972659 25:-0.898761 26:-0.980789 27:-0.978403 28:-0.942468 29:-0.963917 30:-0.964663 31:-0.887515 32:-0.97003 33:-0.940693 34:-0.850144 35:-0.92886 36:-0.850149 37:-0.504539 38:-0.92376 39:-0.895337 40:-0.882513 41:-0.925715 42:-0.897035 43:-0.619432 44:-0.934473 45:-0.889896 46:-0.682747 47:-0.86218 48:-0.449087 49:0.207536 50:-0.858459 51:-0.756518 52:-0.880701 53:-0.901521 54:-0.763959 55:-0.401523 56:-0.905046 57:-0.899732 58:-0.619721 59:-0.793928 60:0.015549 61:0.786289 62:-0.8046 63:-0.684152 64:-0.90864 65:-0.909657 66:-0.718993 67:-0.283519 68:-0.90163 69:-0.932932 70:-0.592498 71:-0.690072 72:0.268607 73:0.813836 74:-0.73682 75:-0.709826 
-3000 1:-0.965142 2:-0.994303 3:-0.99941 4:-0.869567 5:-0.955657 6:-0.994491 7:-0.829922 8:-0.900529 9:-0.971917 10:-0.775359 11:-0.892083 12:-0.935533 13:-0.770928 14:-0.855007 15:-0.937 16:-0.986417 17:-0.99012 18:-0.989734 19:-0.978298 20:-0.991505 21:-0.985096 22:-0.963243 23:-0.982074 24:-0.971919 25:-0.89795 26:-0.981753 27:-0.978084 28:-0.940648 29:-0.962906 30:-0.960494 31:-0.879766 32:-0.967561 33:-0.938811 34:-0.848167 35:-0.922945 36:-0.849818 37:-0.502682 38:-0.918 39:-0.893287 40:-0.87647 41:-0.918065 42:-0.876393 43:-0.607837 44:-0.92641 45:-0.880583 46:-0.684919 47:-0.850204 48:-0.43844 49:0.209402 50:-0.848471 51:-0.752422 52:-0.875684 53:-0.897676 54:-0.707387 55:-0.400674 56:-0.896466 57:-0.895027 58:-0.625492 59:-0.772311 60:0.0444874 61:0.770607 62:-0.793364 63:-0.680695 64:-0.90444 65:-0.906803 66:-0.640509 67:-0.331319 68:-0.898446 69:-0.929208 70:-0.593913 71:-0.689999 72:0.284501 73:0.809056 74:-0.731699 75:-0.710102 
2383.204541006533 1:-0.976042 2:-0.996444 3:-0.999773 4:-0.886497 5:-0.966228 6:-0.996552 7:-0.839191 8:-0.908703 9:-0.974959 10:-0.777051 11:-0.894935 12:-0.93677 13:-0.771695 14:-0.852621 15:-0.937901 16:-0.988421 17:-0.99198 18:-0.990508 19:-0.978545 20:-0.99242 21:-0.987703 22:-0.96552 23:-0.983271 24:-0.974174 25:-0.897948 26:-0.982222 27:-0.980342 28:-0.942312 29:-0.963637 30:-0.954795 31:-0.873162 32:-0.967782 33:-0.942404 34:-0.848155 35:-0.923206 36:-0.848087 37:-0.493261 38:-0.918721 39:-0.89502 40:-0.869519 41:-0.91616 42:-0.84904 43:-0.599535 44:-0.922192 45:-0.883283 46:-0.676199 47:-0.83614 48:-0.450543 49:0.227358 50:-0.838539 51:-0.7493 52:-0.862052 53:-0.887943 54:-0.695032 55:-0.366864 56:-0.890978 57:-0.887627 58:-0.624561 59:-0.757462 60:0.029135 61:0.792626 62:-0.778901 63:-0.676303 64:-0.898188 65:-0.904805 66:-0.633023 67:-0.328592 68:-0.89944 69:-0.927236 70:-0.589747 71:-0.673758 72:0.309193 73:0.797961 74:-0.723373 75:-0.711318 
1920.371319351058 1:-0.958104 2:-0.993192 3:-0.999475 4:-0.835267 5:-0.940805 6:-0.991593 7:-0.810517 8:-0.887788 9:-0.968765 10:-0.764416 11:-0.886167 12:-0.935521 13:-0.768901 14:-0.854347 15:-0.938132 16:-0.988671 17:-0.991648 18:-0.989939 19:-0.976714 20:-0.992863 21:-0.988714 22:-0.951694 23:-0.988212 24:-0.977607 25:-0.88425 26:-0.987925 27:-0.983902 28:-0.948858 29:-0.971966 30:-0.97283 31:-0.892141 32:-0.978071 33:-0.951746 34:-0.838438 35:-0.958861 36:-0.879649 37:-0.457771 38:-0.95364 39:-0.920389 40:-0.894801 41:-0.943908 42:-0.932984 43:-0.622985 44:-0.948893 45:-0.907199 46:-0.671672 47:-0.895333 48:-0.596739 49:0.289577 50:-0.881865 51:-0.780902 52:-0.892448 53:-0.915555 54:-0.87008 55:-0.326577 56:-0.917029 57:-0.912691 58:-0.612764 59:-0.787271 60:-0.295727 61:0.943904 62:-0.784673 63:-0.701103 64:-0.915257 65:-0.921022 66:-0.794382 67:-0.220002 68:-0.910328 69:-0.93599 70:-0.583659 71:-0.708685 72:0.0553162 73:0.933217 74:-0.751882 75:-0.70825 
-1117.068687759601 1:-0.95848 2:-0.994941 3:-0.999826 4:-0.825759 5:-0.942706 6:-0.992598 7:-0.791475 8:-0.885101 9:-0.967254 10:-0.753276 11:-0.870214 12:-0.932281 13:-0.768372 14:-0.851038 15:-0.935821 16:-0.993035 17:-0.994131 18:-0.99255 19:-0.974042 20:-0.994564 21:-0.993718 22:-0.950496 23:-0.990778 24:-0.985039 25:-0.876394 26:-0.990107 27:-0.991204 28:-0.954577 29:-0.977364 30:-0.972016 31:-0.887673 32:-0.979564 33:-0.956955 34:-0.834321 35:-0.959713 36:-0.88787 37:-0.448444 38:-0.95488 39:-0.928333 40:-0.893107 41:-0.94884 42:-0.937617 43:-0.613976 44:-0.950448 45:-0.903074 46:-0.669977 47:-0.891479 48:-0.609041 49:0.294867 50:-0.879161 51:-0.803323 52:-0.898772 53:-0.925202 54:-0.88888 55:-0.296462 56:-0.919084 57:-0.911311 58:-0.617465 59:-0.775145 60:-0.284064 61:0.931336 62:-0.78659 63:-0.698047 64:-0.923816 65:-0.92978 66:-0.835682 67:-0.131658 68:-0.914088 69:-0.934299 70:-0.583669 71:-0.701869 72:-0.00068823 73:0.975683 74:-0.759835 75:-0.699271 
-1.81995806182604 1:-0.945429 2:-0.997342 3:-0.99996 4:-0.794615 5:-0.940556 6:-0.994628 7:-0.751675 8:-0.869398 9:-0.962663 10:-0.692083 11:-0.831459 12:-0.915016 13:-0.682462 14:-0.81673 15:-0.924069 16:-0.996807 17:-0.996343 18:-0.996659 19:-0.974232 20:-0.996812 21:-0.997239 22:-0.951565 23:-0.993347 24:-0.994437 25:-0.869151 26:-0.992701 27:-0.995203 28:-0.961394 29:-0.981343 30:-0.973352 31:-0.880696 32:-0.983704 33:-0.965419 34:-0.822784 35:-0.96174 36:-0.912151 37:-0.406698 38:-0.955437 39:-0.944715 40:-0.899493 41:-0.945554 42:-0.939547 43:-0.579267 44:-0.946226 45:-0.914691 46:-0.64831 47:-0.880199 48:-0.641517 49:0.376037 50:-0.86331 51:-0.842206 52:-0.887085 53:-0.912106 54:-0.915568 55:-0.356053 56:-0.912822 57:-0.913794 58:-0.600714 59:-0.764906 60:-0.323494 61:0.977938 62:-0.749146 63:-0.778526 64:-0.887719 65:-0.925871 66:-0.905476 67:-0.448037 68:-0.914668 69:-0.923081 70:-0.572896 71:-0.704331 72:-0.0373014 73:0.95537 74:-0.737862 75:-0.748397 
-959.6764236684659 1:-0.988872 2:-0.999604 3:-0.999979 4:-0.897627 5:-0.986297 6:-0.999388 7:-0.834004 8:-0.923103 9:-0.982489 10:-0.777255 11:-0.901744 12:-0.940387 13:-0.772452 14:-0.85746 15:-0.938445 16:-0.9966 17:-0.996382 18:-0.997658 19:-0.989743 20:-0.996679 21:-0.996294 22:-0.969836 23:-0.991434 24:-0.991802 25:-0.893755 26:-0.989772 27:-0.988802 28:-0.977655 29:-0.979666 30:-0.983934 31:-0.907231 32:-0.980945 33:-0.981798 34:-0.851661 35:-0.951778 36:-0.933718 37:-0.449416 38:-0.944096 39:-0.925195 40:-0.937657 41:-0.941591 42:-0.937146 43:-0.62411 44:-0.943809 45:-0.955424 46:-0.664145 47:-0.867929 48:-0.686476 49:0.351123 50:-0.865353 51:-0.792117 52:-0.90716 53:-0.915345 54:-0.834707 55:-0.371844 56:-0.919221 57:-0.936191 58:-0.609946 59:-0.804034 60:-0.275386 61:0.991142 62:-0.825732 63:-0.705971 64:-0.919379 65:-0.918669 66:-0.769345 67:-0.256835 68:-0.910599 69:-0.941299 70:-0.589945 71:-0.700341 72:0.0746729 73:0.928998 74:-0.750479 75:-0.711265 
-2588.553811798736 1:-0.994097 2:-0.999787 3:-0.999981 4:-0.934774 5:-0.997071 6:-0.99975 7:-0.857635 8:-0.968485 9:-0.995936 10:-0.785619 11:-0.915846 12:-0.95758 13:-0.77421 14:-0.858727 15:-0.942726 16:-0.997258 17:-0.996704 18:-0.998457 19:-0.992144 20:-0.996685 21:-0.997092 22:-0.975265 23:-0.99082 24:-0.99222 25:-0.897676 26:-0.989717 27:-0.989935 28:-0.982256 29:-0.984577 30:-0.987326 31:-0.913645 32:-0.985162 33:-0.986209 34:-0.867385 35:-0.953754 36:-0.943475 37:-0.455758 38:-0.949952 39:-0.925571 40:-0.953777 41:-0.94573 42:-0.946159 43:-0.639442 44:-0.946865 45:-0.97214 46:-0.67163 47:-0.860021 48:-0.743171 49:0.357703 50:-0.866232 51:-0.790206 52:-0.921018 53:-0.912964 54:-0.848144 55:-0.34979 56:-0.920011 57:-0.950243 58:-0.622727 59:-0.751843 60:-0.331936 61:0.988325 62:-0.786122 63:-0.721105 64:-0.922888 65:-0.914797 66:-0.769613 67:-0.239739 68:-0.904201 69:-0.947986 70:-0.581242 71:-0.699748 72:0.114017 73:0.906953 74:-0.729146 75:-0.722267 
2473.4046018666 1:-0.99789 2:-0.999823 3:-0.999976 4:-0.959735 5:-0.997302 6:-0.999736 7:-0.887659 8:-0.978781 9:-0.997582 10:-0.808136 11:-0.936898 12:-0.971395 13:-0.783986 14:-0.879478 15:-0.952048 16:-0.997973 17:-0.997291 18:-0.998612 19:-0.992699 20:-0.997195 21:-0.997559 22:-0.976491 23:-0.991024 24:-0.993707 25:-0.898314 26:-0.988951 27:-0.990955 28:-0.986751 29:-0.986319 30:-0.987624 31:-0.91947 32:-0.987302 33:-0.988552 34:-0.874319 35:-0.955618 36:-0.949813 37:-0.460836 38:-0.946848 39:-0.931402 40:-0.963988 41:-0.956353 42:-0.943041 43:-0.658043 44:-0.959712 45:-0.973503 46:-0.685502 47:-0.878285 48:-0.755858 49:0.356715 50:-0.871361 51:-0.792113 52:-0.941566 53:-0.914143 54:-0.848482 55:-0.393913 56:-0.922498 57:-0.962151 58:-0.618866 59:-0.757224 60:-0.398014 61:1 62:-0.768854 63:-0.726345 64:-0.925033 65:-0.911897 66:-0.780939 67:-0.274413 68:-0.912549 69:-0.947491 70:-0.584926 71:-0.692432 72:0.00786879 73:0.962308 74:-0.737503 75:-0.739962 
-154.3640339666492 1:-0.998775 2:-0.999831 3:-0.999974 4:-0.970536 5:-0.998143 6:-0.999719 7:-0.909917 8:-0.988232 9:-0.998545 10:-0.824335 11:-0.937875 12:-0.982663 13:-0.784713 14:-0.893403 15:-0.953363 16:-0.998382 17:-0.997687 18:-0.999052 19:-0.993093 20:-0.997512 21:-0.998435 22:-0.979013 23:-0.990614 24:-0.994237 25:-0.899328 26:-0.989058 27:-0.992167 28:-0.989041 29:-0.988805 30:-0.990389 31:-0.921376 32:-0.988844 33:-0.993891 34:-0.885034 35:-0.952585 36:-0.952421 37:-0.467954 38:-0.946939 39:-0.938288 40:-0.969241 41:-0.966521 42:-0.951584 43:-0.653136 44:-0.967146 45:-0.988108 46:-0.705461 47:-0.877747 48:-0.759539 49:0.352312 50:-0.88367 51:-0.803471 52:-0.951226 53:-0.928255 54:-0.854017 55:-0.386946 56:-0.930312 57:-0.980068 58:-0.636398 59:-0.729239 60:-0.411193 61:0.987631 62:-0.766469 63:-0.736961 64:-0.929091 65:-0.92815 66:-0.739752 67:-0.278719 68:-0.916297 69:-0.963382 70:-0.57276 71:-0.713724 72:-0.0335125 73:1 74:-0.727597 75:-0.750596 
585.7380971062507 1:-0.758023 2:-0.870551 3:-0.948873 4:-0.645271 5:-0.686741 6:-0.714752 7:-0.674428 8:-0.783749 9:-0.759894 10:-0.741181 11:-0.855739 12:-0.847726 13:-0.761157 14:-0.848159 15:-0.918423 16:-0.921208 17:-0.943167 18:-0.913731 19:-0.892789 20:-0.947197 21:-0.919838 22:-0.879375 23:-0.936297 24:-0.910857 25:-0.805 26:-0.935668 27:-0.911277 28:-0.796664 29:-0.814759 30:-0.786831 31:-0.684585 32:-0.850726 33:-0.795761 34:-0.650427 35:-0.811398 36:-0.684065 37:-0.309249 38:-0.815127 39:-0.719099 40:-0.767153 41:-0.644875 42:-0.687822 43:-0.376801 44:-0.792117 45:-0.742553 46:-0.530628 47:-0.616038 48:-0.363272 49:0.393634 50:-0.738172 51:-0.596954 52:-0.824189 53:-0.727256 54:-0.647972 55:-0.32018 56:-0.795762 57:-0.851322 58:-0.54503 59:-0.65367 60:-0.00888806 61:0.79146 62:-0.712353 63:-0.626155 64:-0.879596 65:-0.819161 66:-0.604128 67:-0.313224 68:-0.842236 69:-0.905765 70:-0.536628 71:-0.634221 72:0.196562 73:0.764529 74:-0.689374 75:-0.67502 
-475.1513821290614 1:-0.621306 2:-0.739232 3:-0.882269 4:-0.518057 5:-0.542118 6:-0.587755 7:-0.631598 8:-0.715281 9:-0.607478 10:-0.715261 11:-0.825964 12:-0.770099 13:-0.746087 14:-0.839443 15:-0.903447 16:-0.856417 17:-0.908039 18:-0.822188 19:-0.790833 20:-0.911668 21:-0.853847 22:-0.803187 23:-0.900452 24:-0.816416 25:-0.712951 26:-0.899374 27:-0.840462 28:-0.687181 29:-0.732157 30:-0.653799 31:-0.552588 32:-0.778321 33:-0.684179 34:-0.515367 35:-0.72954 36:-0.547027 37:-0.216571 38:-0.743595 39:-0.591355 40:-0.638336 41:-0.519918 42:-0.52038 43:-0.258644 44:-0.683002 45:-0.621976 46:-0.374128 47:-0.500573 48:-0.215061 49:0.401923 50:-0.629288 51:-0.455197 52:-0.742813 53:-0.598048 54:-0.467539 55:-0.273788 56:-0.700255 57:-0.788101 58:-0.443877 59:-0.52954 60:0.0910948 61:0.693101 62:-0.596192 63:-0.537909 64:-0.825539 65:-0.723404 66:-0.485782 67:-0.347761 68:-0.758907 69:-0.877859 70:-0.47446 71:-0.529492 72:0.259612 73:0.619441 74:-0.598908 75:-0.632799 
93.82742492158369 1:-0.385126 2:-0.539752 3:-0.80426 4:-0.224487 5:-0.0982672 6:-0.146156 7:-0.506734 8:-0.558024 9:-0.19438 10:-0.656547 11:-0.759876 12:-0.650455 13:-0.674105 14:-0.779871 15:-0.825385 16:-0.741704 17:-0.821825 18:-0.64369 19:-0.613365 20:-0.822719 21:-0.739482 22:-0.691289 23:-0.813014 24:-0.635126 25:-0.542045 26:-0.813999 27:-0.723762 28:-0.423576 29:-0.511003 30:-0.258613 31:-0.163198 32:-0.565039 33:-0.415877 34:-0.264385 35:-0.516957 36:-0.146835 37:0.146008 38:-0.550658 39:-0.333193 40:-0.405686 41:-0.158579 42:-0.0808919 43:0.192077 44:-0.402314 45:-0.383368 46:-0.173721 47:-0.199174 48:0.20417 49:0.681865 50:-0.398232 51:-0.243445 52:-0.599836 53:-0.269722 54:-0.0290598 55:0.0625887 56:-0.472763 57:-0.675353 58:-0.344304 59:-0.284099 60:0.407318 61:0.836078 62:-0.437629 63:-0.457788 64:-0.721213 65:-0.494467 66:-0.247504 67:-0.174164 68:-0.580945 69:-0.79568 70:-0.41704 71:-0.348259 72:0.42101 73:0.626288 74:-0.497874 75:-0.598659 
-28.05081051129558 1:-0.156311 2:-0.367057 3:-0.70555 4:0.0857038 5:0.383201 6:0.375482 7:-0.331848 8:-0.355722 9:0.243444 10:-0.658075 11:-0.737989 12:-0.470591 13:-0.684094 14:-0.792099 15:-0.810566 16:-0.604322 17:-0.692313 18:-0.482919 19:-0.424197 20:-0.696668 21:-0.603206 22:-0.532265 23:-0.681206 24:-0.471884 25:-0.358627 26:-0.688073 27:-0.585059 28:-0.0801708 29:-0.229131 30:0.227038 31:0.2979 32:-0.302465 33:-0.0732618 34:0.0391294 35:-0.219792 36:0.343606 37:0.57468 38:-0.292677 39:-0.00512933 40:-0.16424 41:0.341154 42:0.439795 43:0.738876 44:-0.116532 45:-0.0876089 46:0.00972904 47:0.274797 48:0.691193 49:1 50:-0.0966475 51:0.0212705 52:-0.496799 53:-0.113293 54:0.202744 55:0.244456 56:-0.360401 57:-0.585619 58:-0.291997 59:-0.0695003 60:0.595507 61:0.840093 62:-0.283778 63:-0.392899 64:-0.680631 65:-0.480986 66:-0.216095 67:-0.15643 68:-0.579043 69:-0.768956 70:-0.397979 71:-0.262599 72:0.499932 73:0.537576 74:-0.433831 75:-0.58274 
30.30047957973422 1:-0.363296 2:-0.776202 3:-0.928401 4:0.846816 5:0.16782 6:-0.760959 7:0.960717 8:0.941708 9:0.0238013 10:0.983712 11:0.992656 12:0.913369 13:0.998291 14:0.987855 15:0.982609 16:-0.712137 17:-0.733884 18:-0.784928 19:-0.750297 20:-0.711324 21:-0.708414 22:-0.664111 23:-0.711591 24:-0.767846 25:-0.734572 26:-0.692669 27:-0.705557 28:-0.309416 29:-0.54455 30:-0.610908 31:-0.52007 32:-0.462437 33:-0.192674 34:-0.141424 35:-0.482622 36:-0.50261 37:-0.443403 38:-0.381089 39:-0.187989 40:0.351842 41:0.0143282 42:-0.0370507 43:0.0910466 44:0.12229 45:0.581231 46:0.619287 47:0.0984023 48:0.164772 49:0.037519 50:0.266236 51:0.584028 52:0.750365 53:0.763919 54:0.651034 55:0.590673 56:0.811811 57:0.851293 58:0.76653 59:0.793559 60:0.696312 61:0.386634 62:0.875099 63:0.840132 64:0.876814 65:0.860914 66:0.851509 67:0.882593 68:0.914803 69:0.921679 70:0.848861 71:0.894322 72:0.934942 73:0.218152 74:0.935173 75:0.909384 
-0.1245227221515475 1:1 2:0.900792 3:0.853757 4:0.339861 5:1 6:0.936345 7:0.275107 8:0.716426 9:1 10:0.479363 11:0.603041 12:0.778725 13:0.631167 14:0.622203 15:0.607503 16:0.808934 17:0.788693 18:0.781202 19:0.960762 20:0.80173 21:0.818407 22:0.993209 23:0.804943 24:0.793687 25:0.97283 26:0.812018 27:0.822563 28:1 29:0.96431 30:0.904955 31:0.94049 32:1 33:1 34:1 35:1 36:0.983263 37:0.979558 38:1 39:1 40:1 41:1 42:1 43:1 44:1 45:1 46:1 47:1 48:1 49:0.629758 50:1 51:1 52:0.821198 53:0.938849 54:1 55:0.646402 56:0.935638 57:0.771319 58:0.698248 59:1 60:0.78152 61:0.332573 62:0.961584 63:0.801814 64:0.751003 65:0.709572 66:0.838839 67:0.702982 68:0.75766 69:0.736961 70:0.660129 71:0.776148 72:0.790384 73:0.0870387 74:0.754872 75:0.724237 
-7.985834592015729 1:-0.910938 2:-0.99927 3:-0.999932 4:-0.104806 5:-0.855265 6:-0.995523 7:0.541156 8:0.0936798 9:-0.689837 10:0.827683 11:0.723001 12:0.450291 13:0.933198 14:0.905331 15:0.840597 16:-0.917058 17:-0.953282 18:-0.959371 19:-0.947292 20:-0.944895 21:-0.879756 22:-0.864105 23:-0.940888 24:-0.943207 25:-0.920163 26:-0.925437 27:-0.882657 28:-0.568281 29:-0.744792 30:-0.773884 31:-0.693944 32:-0.702311 33:-0.399822 34:-0.346178 35:-0.687336 36:-0.683219 37:-0.579362 38:-0.61148 39:-0.418162 40:0.126569 41:-0.141792 42:-0.20161 43:0.000845563 44:-0.088429 45:0.44005 46:0.496059 47:-0.0720413 48:0.017382 49:0.00752983 50:0.0798837 51:0.402499 52:0.647387 53:0.663394 54:0.559156 55:0.554604 56:0.681252 57:0.804265 58:0.728319 59:0.685995 60:0.652404 61:0.381672 62:0.770328 63:0.77615 64:0.846691 65:0.851704 66:0.779324 67:0.874914 68:0.871674 69:0.912852 70:0.822798 71:0.859697 72:0.919838 73:0.205758 74:0.917093 75:0.87806 
6.563835550720146 1:-0.991329 2:-0.999816 3:-0.99992 4:-0.819539 5:-0.996207 6:-0.999021 7:-0.341115 8:-0.861453 9:-0.985815 10:0.306488 11:-0.105726 12:-0.574156 13:0.755918 14:0.603334 15:0.337565 16:-0.942482 17:-0.963338 18:-0.97031 19:-0.9599 20:-0.955603 21:-0.909684 22:-0.890006 23:-0.950759 24:-0.954861 25:-0.930502 26:-0.938228 27:-0.909492 28:-0.664972 29:-0.79874 30:-0.820641 31:-0.762643 32:-0.764603 33:-0.510276 34:-0.48196 35:-0.740325 36:-0.730678 37:-0.637573 38:-0.681338 39:-0.514647 40:-0.0492732 41:-0.315875 42:-0.310917 43:-0.164121 44:-0.288577 45:0.262266 46:0.234089 47:-0.220918 48:-0.0762411 49:-0.0995605 50:-0.119439 51:0.254285 52:0.466231 53:0.462743 54:0.437522 55:0.466439 56:0.367234 57:0.686091 58:0.544355 59:0.48443 60:0.60522 61:0.316086 62:0.52663 63:0.687502 64:0.731571 65:0.727841 66:0.787267 67:0.783613 68:0.724003 69:0.87487 70:0.730099 71:0.792288 72:0.923693 73:0.189168 74:0.806777 75:0.816913 
13.86882352469516 1:-0.51627 2:-0.896565 3:-0.980418 4:0.65596 5:-0.0761386 6:-0.850049 7:0.874442 8:0.840654 9:-0.0788916 10:0.956001 11:0.986782 12:0.898549 13:0.98974 14:1 15:1 16:-0.840977 17:-0.909076 18:-0.922594 19:-0.899186 20:-0.894753 21:-0.82375 22:-0.779644 23:-0.893674 24:-0.90414 25:-0.877153 26:-0.87806 27:-0.824581 28:-0.336574 29:-0.633999 30:-0.669145 31:-0.574227 32:-0.57146 33:-0.217749 34:-0.146454 35:-0.582584 36:-0.564631 37:-0.483783 38:-0.49444 39:-0.206612 40:0.424032 41:0.0254934 42:-0.00759299 43:0.12599 44:0.123141 45:0.630694 46:0.665477 47:0.102653 48:0.178999 49:0.0704239 50:0.258687 51:0.641775 52:0.788935 53:0.785815 54:0.755513 55:0.616956 56:0.8071 57:0.895077 58:0.798881 59:0.81849 60:0.738238 61:0.39093 62:0.916615 63:0.909312 64:0.893037 65:0.889852 66:0.879917 67:0.928939 68:0.909854 69:0.938307 70:0.849257 71:0.923208 72:0.967546 73:0.21506 74:0.9569 75:0.932509 
-9.622642861756059 1:-0.715967 2:-0.96305 3:-0.996661 4:0.340396 5:-0.389457 6:-0.929507 7:0.720761 8:0.585096 9:-0.291727 10:0.898068 11:0.927536 12:0.797352 13:0.966507 14:0.99231 15:0.993797 16:-0.844043 17:-0.928651 18:-0.922382 19:-0.897185 20:-0.915695 21:-0.818698 22:-0.776939 23:-0.915407 24:-0.904927 25:-0.872611 26:-0.901195 27:-0.813543 28:-0.295486 29:-0.659998 30:-0.633276 31:-0.537879 32:-0.581397 33:-0.192062 34:-0.103711 35:-0.606812 36:-0.533361 37:-0.441874 38:-0.516389 39:-0.176105 40:0.501399 41:0.0233528 42:0.0585851 43:0.216351 44:0.109241 45:0.707146 46:0.723918 47:0.0874286 48:0.238627 49:0.127997 50:0.245275 51:0.719315 52:0.847242 53:0.840311 54:0.820343 55:0.652454 56:0.815421 57:0.936481 58:0.815258 59:0.85195 60:0.75329 61:0.396756 62:0.922875 63:0.946559 64:0.916669 65:0.929943 66:0.905562 67:0.930577 68:0.92743 69:0.964706 70:0.852084 71:0.946283 72:0.920826 73:0.236404 74:0.959799 75:0.955286 
-1.285520304567259 1:-0.922034 2:-0.996144 3:-0.9998 4:-0.292868 5:-0.800519 6:-0.990786 7:0.296703 8:-0.0521312 9:-0.717514 10:0.727439 11:0.644406 12:0.379773 13:0.92428 14:0.967654 15:0.962045 16:-0.875048 17:-0.944276 18:-0.936286 19:-0.913406 20:-0.931505 21:-0.847494 22:-0.807034 23:-0.931878 24:-0.921428 25:-0.884355 26:-0.919959 27:-0.840282 28:-0.347627 29:-0.704231 30:-0.640466 31:-0.553023 32:-0.643386 33:-0.22988 34:-0.143248 35:-0.655532 36:-0.552384 37:-0.431193 38:-0.592364 39:-0.211203 40:0.550324 41:-0.0530385 42:0.171616 43:0.313419 44:0.0179752 45:0.734879 46:0.792398 47:0.000220869 48:0.303523 49:0.236914 50:0.120609 51:0.765663 52:0.929496 53:0.805028 54:0.956278 55:0.793036 56:0.778913 57:1 58:0.857583 59:0.82047 60:0.851179 61:0.476806 62:0.917183 63:1 64:0.932886 65:1 66:1 67:0.938047 68:1 69:0.950709 70:0.873371 71:0.963421 72:0.948729 73:0.266745 74:1 75:0.93926 
18.71741920157546 1:-0.499349 2:-0.888435 3:-0.984029 4:0.883181 5:0.102271 6:-0.790384 7:1 8:0.91575 9:-0.0197333 10:1 11:1 12:0.899461 13:1 14:0.996912 15:0.984553 16:-0.868176 17:-0.905759 18:-0.923686 19:-0.887806 20:-0.890377 21:-0.841953 22:-0.771229 23:-0.895336 24:-0.906476 25:-0.857864 26:-0.876399 27:-0.844762 28:-0.456027 29:-0.663866 30:-0.727237 31:-0.627691 32:-0.582375 33:-0.322386 34:-0.215954 35:-0.617707 36:-0.629516 37:-0.50433 38:-0.518641 39:-0.336948 40:0.227421 41:-0.0453517 42:-0.146544 43:0.0720476 44:0.0679622 45:0.494415 46:0.634763 47:0.022082 48:0.0515692 49:0.0707878 50:0.189088 51:0.467249 52:0.657984 53:0.752494 54:0.584081 55:0.618498 56:0.793504 57:0.811613 58:0.81165 59:0.815435 60:0.608501 61:0.415912 62:0.873038 63:0.792566 64:0.854729 65:0.871194 66:0.82478 67:0.910631 68:0.91145 69:0.913143 70:0.882519 71:0.894093 72:0.940488 73:0.227015 74:0.927388 75:0.910504 
11.29769883255309 1:-0.574471 2:-0.926033 3:-0.993801 4:0.824101 5:0.0289051 6:-0.798056 7:0.978318 8:0.883631 9:-0.0124502 10:0.986355 11:0.986929 12:0.901298 13:0.989137 14:0.983285 15:0.988727 16:-0.883533 17:-0.921622 18:-0.925052 19:-0.875831 20:-0.907117 21:-0.862779 22:-0.726935 23:-0.91307 24:-0.909146 25:-0.842605 26:-0.896655 27:-0.856052 28:-0.453176 29:-0.654601 30:-0.707048 31:-0.595677 32:-0.573325 33:-0.329927 34:-0.162984 35:-0.616601 36:-0.608395 37:-0.472142 38:-0.520128 39:-0.326707 40:0.251888 41:-0.0321692 42:-0.133642 43:0.0854789 44:0.0653805 45:0.51342 46:0.632205 47:0.0299876 48:0.0751233 49:0.0666692 50:0.200979 51:0.465881 52:0.690257 53:0.773134 54:0.598376 55:0.584891 56:0.791018 57:0.790333 58:0.810188 59:0.829273 60:0.615905 61:0.408995 62:0.872119 63:0.77699 64:0.880462 65:0.89015 66:0.852833 67:0.847138 68:0.919278 69:0.886573 70:0.894548 71:0.89733 72:0.943205 73:0.217408 74:0.94074 75:0.89629 
-3.793649077839592 1:-0.987508 2:-0.999549 3:-0.999931 4:-0.803622 5:-0.987564 6:-0.999084 7:-0.257725 8:-0.851473 9:-0.983037 10:0.360846 11:-0.0421316 12:-0.543068 13:0.765327 14:0.649426 15:0.428442 16:-0.956868 17:-0.964892 18:-0.969008 19:-0.932812 20:-0.955191 21:-0.946134 22:-0.84061 23:-0.951315 24:-0.957437 25:-0.898336 26:-0.946865 27:-0.935247 28:-0.740745 29:-0.815675 30:-0.802182 31:-0.631754 32:-0.769153 33:-0.684048 34:-0.257028 35:-0.746644 36:-0.727767 37:-0.490009 38:-0.733646 39:-0.620458 40:-0.246296 41:-0.372036 42:-0.212549 43:0.178009 44:-0.292192 45:-0.113059 46:0.680531 47:-0.235704 48:-0.0232179 49:0.166281 50:-0.244046 51:0.0541566 52:0.226452 53:0.64256 54:0.492365 55:0.659895 56:0.676103 57:0.335756 58:0.759969 59:0.76877 60:0.587195 61:0.424266 62:0.643886 63:0.451289 64:0.636931 65:0.894405 66:0.858168 67:0.762207 68:0.970499 69:0.755604 70:0.756667 71:0.840676 72:0.953344 73:0.238695 74:0.89854 75:0.70678 
-127.6455852055268 1:-0.194743 2:-0.695806 3:-0.886367 4:1 5:0.262949 6:-0.656821 7:0.978135 8:0.964691 9:0.184576 10:0.931908 11:0.963292 12:0.93726 13:0.922595 14:0.945565 15:0.934302 16:-0.865272 17:-0.846456 18:-0.878143 19:-0.813722 20:-0.823106 21:-0.861454 22:-0.671826 23:-0.826188 24:-0.872198 25:-0.781782 26:-0.806991 27:-0.85696 28:-0.356173 29:-0.559273 30:-0.576258 31:-0.459145 32:-0.480277 33:-0.222336 34:-0.0566084 35:-0.505954 36:-0.466224 37:-0.363089 38:-0.417391 39:-0.214698 40:0.322671 41:0.11458 42:0.0342364 43:0.320857 44:0.192407 45:0.575571 46:0.732603 47:0.176661 48:0.251454 49:0.2144 50:0.300397 51:0.56944 52:0.754468 53:0.77797 54:0.718023 55:0.759662 56:0.865788 57:0.837862 58:0.848281 59:0.788856 60:0.784578 61:0.472888 62:0.906292 63:0.842795 64:0.897789 65:0.83772 66:0.8233 67:0.93895 68:0.873094 69:0.944648 70:0.880803 71:0.866586 72:0.963327 73:0.219979 74:0.953698 75:0.896813 
157.9529529865334 1:-0.191727 2:-0.692771 3:-0.883578 4:0.979298 5:0.299498 6:-0.62983 7:0.922411 8:1 9:0.277413 10:0.877458 11:0.944938 12:1 13:0.845379 14:0.892991 15:0.911462 16:-0.820911 17:-0.824811 18:-0.841798 19:-0.776739 20:-0.803142 21:-0.817966 22:-0.63902 23:-0.804967 24:-0.835714 25:-0.744907 26:-0.787241 27:-0.811882 28:-0.243416 29:-0.484501 30:-0.466677 31:-0.330901 32:-0.411535 33:-0.121558 34:0.041463 35:-0.438726 36:-0.345283 37:-0.244585 38:-0.353249 39:-0.106029 40:0.482875 41:0.240997 42:0.260369 43:0.570521 44:0.292419 45:0.704528 46:0.84425 47:0.28134 48:0.477008 49:0.381612 50:0.387931 51:0.709326 52:0.872587 53:0.902189 54:0.88845 55:0.924473 56:0.933718 57:0.907991 58:0.901607 59:0.908227 60:0.912401 61:0.55276 62:0.963509 63:0.924954 64:0.906025 65:0.884927 66:0.850659 67:0.949788 68:0.852702 69:0.972095 70:0.917288 71:0.900023 72:0.951293 73:0.224487 74:0.95408 75:0.943213 
-86.71116924821611 1:-0.175857 2:-0.679569 3:-0.872759 4:0.980687 5:0.315148 6:-0.611072 7:0.900168 8:0.980598 9:0.3121 10:0.846047 11:0.916232 12:0.990295 13:0.804485 14:0.880532 15:0.927177 16:-0.770534 17:-0.805967 18:-0.816415 19:-0.753617 20:-0.785627 21:-0.768457 22:-0.591826 23:-0.786136 24:-0.809013 25:-0.723737 26:-0.769909 27:-0.761413 28:-0.14167 29:-0.434685 30:-0.421691 31:-0.282166 32:-0.36521 33:-0.0394283 34:0.151626 35:-0.391837 36:-0.294024 37:-0.203013 38:-0.309882 39:-0.0187981 40:0.629706 41:0.326206 42:0.344398 43:0.66081 44:0.360599 45:0.80536 46:0.99448 47:0.35686 48:0.55711 49:0.433038 50:0.450062 51:0.817889 52:1 53:1 54:0.98673 55:1 56:1 57:0.972869 58:1 59:0.991131 60:1 61:0.593381 62:1 63:0.997104 64:1 65:0.970693 66:0.869859 67:1 68:0.893972 69:1 70:1 71:1 72:1 73:0.207642 74:0.982775 75:1 
-652.8102170673002 1:-0.95459 2:-0.972266 3:-0.976763 4:-0.899059 5:-0.934848 6:-0.970342 7:-0.85601 8:-0.907405 9:-0.946059 10:-0.794146 11:-0.894101 12:-0.9216 13:-0.692652 14:-0.921444 15:-0.823685 16:-0.801599 17:-0.79609 18:-0.80947 19:-0.783597 20:-0.803152 21:-0.798369 22:-0.77368 23:-0.79115 24:-0.807288 25:-0.781723 26:-0.794095 27:-0.799442 28:-0.803519 29:-0.774389 30:-0.833303 31:-0.750444 32:-0.821803 33:-0.812621 34:-0.691795 35:-0.768937 36:-0.816803 37:-0.735455 38:-0.787758 39:-0.814062 40:-0.78073 41:-0.735246 42:-0.825077 43:-0.714696 44:-0.891684 45:-0.834809 46:-0.568486 47:-0.745078 48:-0.802578 49:-0.721125 50:-0.826038 51:-0.81697 52:-0.699231 53:-0.647326 54:-0.814778 55:-0.716824 56:-0.921667 57:-0.887517 58:-0.421411 59:-0.68646 60:-0.757494 61:-0.673902 62:-0.892239 63:-0.820852 64:-0.581585 65:-0.685404 66:-0.803519 67:-0.629265 68:-0.932196 69:-0.908021 70:0.00250574 71:-0.648399 72:-0.739628 73:-0.673983 74:-0.941836 75:-0.799162 
71.12994073774614 1:-0.741567 2:-0.761926 3:-0.75302 4:-0.861649 5:-0.789592 6:-0.758102 7:-0.868735 8:-0.875976 9:-0.806799 10:-0.807351 11:-0.892636 12:-0.893444 13:-0.705001 14:-0.922331 15:-0.830438 16:-0.309773 17:-0.328592 18:-0.314352 19:-0.312992 20:-0.340161 21:-0.308173 22:-0.305434 23:-0.322852 24:-0.313417 25:-0.312817 26:-0.333936 27:-0.308157 28:-0.362719 29:-0.306347 30:-0.361335 31:-0.290577 32:-0.361146 33:-0.381812 34:-0.296797 35:-0.307738 36:-0.347436 37:-0.282468 38:-0.34435 39:-0.397031 40:-0.503317 41:-0.367189 42:-0.435072 43:-0.353982 44:-0.581867 45:-0.580472 46:-0.372798 47:-0.419211 48:-0.455879 49:-0.487848 50:-0.527225 51:-0.58067 52:-0.600341 53:-0.466655 54:-0.601791 55:-0.596218 56:-0.833558 57:-0.76247 58:-0.457712 59:-0.529122 60:-0.649462 61:-0.661713 62:-0.723749 63:-0.7322 64:-0.486223 65:-0.625217 66:-0.713321 67:-0.650013 68:-0.913485 69:-0.811916 70:-0.123922 71:-0.62848 72:-0.675697 73:-0.6984 74:-0.907625 75:-0.716796 
-10.15980745201791 1:-0.106706 2:-0.146562 3:-0.106366 4:-0.700721 5:-0.369439 6:-0.143282 7:-0.865071 8:-0.782405 9:-0.411032 10:-0.824462 11:-0.882703 12:-0.812564 13:-0.724604 14:-0.922455 15:-0.836032 16:0.32011 17:0.278092 18:0.329562 19:0.304012 20:0.270881 21:0.323335 22:0.307708 23:0.285621 24:0.319027 25:0.306638 26:0.28033 27:0.322855 28:0.216597 29:0.307338 30:0.281675 31:0.31786 32:0.22408 33:0.182348 34:0.241111 35:0.288871 36:0.298946 37:0.308057 38:0.215376 39:0.156916 40:-0.16597 41:0.108758 42:0.0923174 43:0.129276 44:-0.135113 45:-0.25587 46:-0.091451 47:0.0187477 48:0.00621451 49:-0.145616 50:-0.141844 51:-0.250486 52:-0.476182 53:-0.218708 54:-0.363529 55:-0.376008 56:-0.641418 57:-0.642073 58:-0.402743 59:-0.327253 60:-0.482463 61:-0.558956 62:-0.551598 63:-0.623374 64:-0.45486 65:-0.521426 66:-0.641217 67:-0.606673 68:-0.872831 69:-0.766604 70:-0.175671 71:-0.560925 72:-0.647924 73:-0.722808 74:-0.805448 75:-0.680611 
